function [y1] = MelNeuralNetwork(x1)
%MYNEURALNETWORKFUNCTION neural network simulation function.
%
% Auto-generated by MATLAB, 16-Dec-2020 22:50:18.
%
% [y1] = myNeuralNetworkFunction(x1) takes these arguments:
%   x = Qx6 matrix, input #1
% and returns:
%   y = Qx1 matrix, output #1
% where Q is the number of samples.

%#ok<*RPMT0>

% ===== NEURAL NETWORK CONSTANTS =====

% Input 1
x1_step1.xoffset = [0.12641;0.28226;0.23837;0.29182;0.56556;0.84557];
x1_step1.gain = [0.588237024226542;0.37829065584251;0.468501474608391;0.450026776593207;0.350757812253373;0.327068339294154];
x1_step1.ymin = -1;

% Layer 1
b1 = [3.161246285829326208;-3.1513954708404736671;-3.3317703155362941025;-3.28139798060041743;-3.2489918125834753582;3.1553070293771572352;3.1841705506514843549;3.1498895274686837809;3.1341106934685201146;3.0490959467153082585;-3.0825007734391873804;-2.9029911686624552125;-2.9051076599305045711;-2.9428863610427540287;-2.9274304122902070624;-2.7167793780902380618;2.9457552414726335677;-2.8841373581964395711;2.7501021358799531136;2.7458884159730740926;-2.643064291870838467;-2.6587140723481645921;2.8069362076862067745;2.6906232411551709305;-2.5998444540694438665;2.3930488618978897897;2.5649879493981369016;-2.491857514104973248;2.3540520400305542381;2.3959763856888356415;2.4458663906783728592;-2.3489571390765533465;-2.3941067178003323512;-2.2802096662508630764;2.2191543751568838516;-2.2147134006446496102;-2.0995163309590223477;2.1957461778938349717;2.1755332519947230274;-2.1141394535607056504;1.8294257306862582446;2.0125324708222498415;-2.0615632925355154015;1.9057875576463629841;-1.8043664982840204036;1.8622852507222213969;1.9298411639412547114;1.7951845608097942719;-1.6798458728136278495;1.7138290176984849467;1.5662352763738691674;1.5985474205494039079;1.39009427603504232;1.5804076271671845255;-1.7873957944507710138;-1.5270166510927234427;-1.4481790824248339522;1.2763281891067590479;1.4781349879582608153;1.5045481673406917444;1.3300895309069069583;1.3386006975369748595;-1.4094106695352750513;1.1695436990471994587;1.1540139750984168554;-1.1777446515686931239;1.097409715910041772;-1.6032065653117393289;1.0799320788696022966;-1.0737023231619247099;1.1565644752105053161;1.1160636099115992526;0.93026580533120173389;-0.89385495782373014517;0.89907027900516700569;-0.75166413127197140298;-0.884062678053936013;-0.98443199827685612391;1.3912471867785105584;0.65611266854209993049;-0.26889717010470576275;0.29171234116464089814;-0.29128476257420249373;0.2340271304938158492;0.532958674270931132;0.57561066120891046793;0.36080516725128530808;0.37545371795183546393;0.69625943129907419404;0.29973441232370690024;0.42155160429943028255;0.068936782921741976415;-0.25360239021618991018;0.16377542815420442768;-0.52591648051998229896;-0.31696328974906418097;0.079189140580551459214;0.061341866703008167405;-0.20630114310631550434;0.10933649042149692909;-0.061758244863336211883;-0.19765298521481197702;0.043011642752969654613;-0.32749770839808345357;-0.018967259817494683261;-0.27310090715099921699;-0.015479424016737311498;-0.10357022540182385384;-0.42993682256536563946;-0.14426299750082396955;0.36932207131664773758;0.2237951922982125974;-0.72351649867946199457;-0.21293619254383949757;0.50160747201048550004;-0.48681832460197904666;-0.68210491961115748971;-0.76024401980739431117;0.40887094729413653305;0.51683709537989686034;-0.94310932947213288458;0.59325309002053805418;0.6133658794114503765;-0.76214374341184498718;0.59767162908135129662;0.81967864843585669377;-0.94965290190303808249;0.77527396650011304313;-1.2002493104147125003;-0.672780774851338359;-1.0992112943435501382;1.1076533136208390751;-1.0821236215755065668;-1.5657858063954916972;-1.1253573726929333443;-0.98801316479759782041;-1.2664946692788674465;-1.2699345436639444262;-1.1960843546696204864;1.3685465443038895561;-1.3930089928011288869;-1.3264122275817709085;1.4585561024483011394;1.6281782120576535622;1.3620043480577448403;-1.5790458972941476823;-1.5913722905844813749;-1.6789988854727175838;1.7452995417633099251;-1.3568848939000095477;-1.6342713847275138761;1.8415697813326574739;-1.9916567854001225868;-1.6255065136185866681;-1.9593197718952650721;2.0178478855959425253;1.9916896813644540121;1.9693464221207754861;1.9409280883329462775;1.9854735427178569207;-2.0337342473417261424;2.1485433047981277177;2.2519463544260003296;-2.1634683183431304698;2.0767175582211034879;-2.2122370917810272317;2.2621061013214922575;2.3682057196624426432;2.2316062349336229786;2.4501136589579801672;2.3944560619146622038;-2.5407805177505058403;2.4113798970706219471;-2.4734159546718106348;2.6306138583401850184;2.7329180461573936434;2.6730014944358444495;-2.5453293437343584849;2.6868603584519155092;2.8056138005656237056;-2.732223499288743529;2.5234078051847199653;-2.8025447001625396481;2.7630423111296016359;2.9519414227586242561;2.741091056385564162;-2.9198095248413435954;-2.958709762020570011;2.9746026954752857741;-3.0847505241530623898;3.0908950024977466242;-3.104750402669979259;3.1530289473636359254;-3.4637602460404592897;3.2168507050562014093;3.3677640500916616872;-3.3671701510260194645;-3.3006725518596149449;3.5274005474090022183;-3.5257435014043436716];
IW1_1 = [-0.91832227367772578663 -1.2092455481245527604 -1.7073524106021773505 -1.5066729522097854765 0.22706026917351840311 -2.2516844256209807007;1.8168976864265955484 -1.8669476650440242071 -0.71489124777907053776 0.54859368930499430306 -2.2438334154702292977 -0.55075579000258201301;2.3223872203960316263 1.5780433490141831943 -0.57801243348460085159 -1.6706264316695944583 -0.5470563338789001806 0.32589528159591296674;0.099572406779709382585 -1.3158702390413365979 0.83395374809712841113 1.9613401756517705454 0.92148965056734477574 -2.0793690523210539567;0.12654722509959204224 -1.3524211508719030661 -1.5486556500589314656 2.0323429274154545254 1.7182413332322876709 0.37051827319376878789;-1.6502337726743556701 -1.8753390600775530217 -1.4423853880390098414 1.6880895323997842095 -0.64815618018059495409 -0.26500554484970750835;-1.8950634604726699362 0.7121565617776768331 -0.92552450338910485783 -1.0940010350990680976 0.2204534606176437872 2.2957636909232697064;-0.78416938284459092312 -1.7778833351205813873 -0.26146750265309182115 -0.2442868596802016401 -1.7113577276236833224 2.1490039376353307077;-1.2392213443542761109 -1.9757866830897508059 1.7943365881486157409 0.16029556089254232143 0.8770810641319101153 1.3778371938384821327;-0.33209400105396258418 1.111212003194244069 -0.41575967598447866047 -2.6013492038648160509 -1.438788021736359779 -1.0727449193699503116;2.299725426228613312 -1.67171754215946744 -0.13318243373125335238 0.72991866406427907688 -1.3362875680519625821 -0.9873912622747180734;1.8368835969823968934 -0.93971002465785102853 -0.038072889543778069832 2.0522707759883367373 1.1125328347199594514 1.5497881602268697154;0.82679969403270014983 -2.1644005685273257633 1.5811348953082322577 0.55936898423109460143 -0.38110073630151414248 -1.8700383925520407402;1.1979749415134464119 1.1060884649683337955 1.1897296514868365147 -2.2674451669186068692 0.82224980753357068686 1.2561971542099679144;1.6935538050122300735 -0.3000351173699515317 1.0495578260837539197 -1.75848100426109899 0.9188229512682133393 -1.8525009609998677185;1.6298154495982690726 1.9652783795746884277 -0.0028066968618446785401 -0.023806607201790008776 1.6629313852575104971 1.6440805775559486079;-1.7169053780120429042 0.65878788068452409643 -1.3005078976398924961 -0.90897863367807218982 -1.2496860830442719781 -1.6252278183403146006;0.38338229636733273109 -0.50377693883023055843 2.2632351824132022067 -0.18250119701920922144 -2.2657957716435896955 -0.78877482553255506836;-2.1583587956542675812 -1.0963130272123793318 1.7088824713605390571 0.067130832494640566011 0.091430115180524948459 -1.6695848363907357381;-0.079091322498491614668 0.13595169867737189051 -2.3342515022817940107 -1.3057943409362977594 -1.6760243289652549947 1.1873342889400095856;0.057866703228030259842 -0.86139888309450973747 -0.46429583384962197501 -1.196648553963954198 -2.2740435620009034068 -1.7606564534179596215;2.3899136920730845723 0.37605738573349778431 -0.82186264224906535603 0.36703101383398173407 -1.9911776831312437697 0.93142379875028458169;-1.1215187658865097831 0.87599870989272954347 1.088626910479636889 1.5242650188955664259 -0.010456598046633493182 -2.2111858740203156337;-0.78283422062792662466 0.99837134674010830082 0.7577403252213139595 1.8809648840241202095 1.2534862652998102206 -2.0218232265566844497;0.10461958970510031042 1.2269123891203372878 1.5967633634981712731 1.7758593129529938182 0.31783873224062220153 -1.9967152255170215192;-0.72626491435064832736 0.71387377242334160155 -1.4817455580933112103 0.42808558694156356728 2.4851357121263895067 1.3692031870303560392;-0.67430550730003779858 2.246880385055042062 -0.89187947190072658366 2.2882435210179465912 -0.21609773509928972834 -0.25673789106932881632;0.58576639081720383029 2.0560932624172747474 -1.0381923481099888384 2.0338769622610199939 0.17225614387122153981 1.0675300019845685995;-1.2800511673268457624 1.434086056202071191 -1.977406439832078755 -1.2528924908408090033 1.201705402884953866 -1.13250229451389961;-1.3024612746990096301 1.5308035294387369873 -1.8610469618053719909 -1.0640990328438575396 0.51205270166883576355 1.6085886242887001973;-0.19961283149796182901 -0.32317354013602139773 0.47739882935827576693 -2.1570817101839758756 2.4007667227195210735 0.70598199001274219988;1.9995958581973591883 0.95789742607811612096 0.98305249871311040089 -1.0935896986351898441 0.84239120817600687818 -1.8918026157228118311;1.1559937214519293569 -1.213438367606268109 1.5199876686308744222 1.5458654197870458358 0.95956420481572679559 -1.6576768814057951662;0.079199866000743843197 1.8863280230197470022 1.7177508609975709053 -1.5738244927857443223 0.55627563519810041548 -1.4492999960079788746;-1.5656134488077708689 -1.5806856874176373751 1.5790829699836566036 0.95449921365971035492 -0.57841622596177721949 -1.6542137985994684879;1.8878955953722631467 -0.18028009296876559842 1.6205148288979434046 -1.865797758945987983 -0.38653607293937691791 -1.2404031745019719057;0.61011701519078542777 0.56181442212113752444 -1.1208815251235477728 1.6836081537755964721 1.6933078587070955479 2.0277603723548311976;-0.68568283472020929992 0.12531078487220287387 -0.50107948913244293454 1.9957954227783869516 -2.1937393175558841385 1.3470629586465923122;-1.8023075517596991446 1.5041667008721766319 0.45285540828718562345 2.3240124027616184677 -0.11513622256238528752 0.046110253192907964259;0.67380704331330831813 1.2909905012374272015 1.8396470741245132263 -1.6273108054243923259 -0.89078230716412909462 1.5038857173335595796;-1.4425812927640730976 1.9052048671462902263 0.88397334396970261849 -1.4179001823071604171 1.7507222951947376544 -0.59323169684092291742;-1.1992472251513608406 -0.79379161804285658377 1.0699194061444654569 1.7690357373020433318 -1.728748155060420455 -1.4097951228580873906;1.4475161853986704408 0.45406202805419187962 1.6162132767377721532 0.7831577789846659865 1.6714523256112414629 1.5898740353728788577;-1.4355059875553106696 0.94978319487960238821 -1.6805127810621880435 -1.5974341684875217329 1.4165151192492722032 -0.90147990859546267561;1.5489003833411438826 -0.64205339729730359632 -1.4254954743879506562 -1.8525742093609924854 -1.3267875993380724431 -0.4585189520625277404;-1.8949952178673004077 0.026199779665249584015 1.6529495692137867735 -1.6136618193719638459 -0.11286616007984336119 -1.5624036538275254404;-2.0117594420824955748 -0.71634148941990982706 -1.3607821001686342122 -0.69788256637981194164 -1.2855177461670013184 -1.5008089754514990499;-1.523811974727202756 2.1049101364370867984 -2.0496329081751425427 0.63940137003342167876 -0.10542574500565624063 0.27986850995447842827;0.94326510683979503114 -0.37570361828962289819 0.77844476861145317503 -2.2756742650920851467 2.1331709274635586304 -0.41588494439560247384;-2.3343613500026778595 -1.0520904559213417606 -1.0385276554216382738 -1.6819493505894822505 -0.16823926012432519062 -0.52744028051577296345;-1.6202426383174142188 1.2130899388244875681 0.56878397541880432176 0.46274517959110145204 2.2827909162798718512 -1.4522442278198637311;-1.6100648928441845253 1.5390147546335988249 -0.76170046635292087966 -1.6386697931242677484 -0.7160150512121209454 -1.5428304514871880038;-1.0968852447882768697 -1.477042712844739647 0.85485609424899644537 -1.8434269898350341688 0.53419628988165890338 -2.0237464120228105813;-0.23376588493724231865 -1.023657753597004394 1.0809347033195457755 2.4121373410949469296 1.6834145735809691313 0.010594792181299342304;2.1455102429011221332 0.92986518267139850469 -1.1950983051589572081 0.93990362651543390982 0.64396257053810523896 1.5204837138712425926;1.08896198777458042 1.4232718389228382616 0.10515179399513746583 -1.9944587667584163793 -1.7554820430511695051 0.94249416716049028153;0.42307432545362427811 -0.52968689014296799211 -0.48811482979132103655 -0.95906234642141130475 2.039277761189896232 2.3872403439326408403;-0.40047233774633395065 -1.848248219722598451 1.7230254077493720732 0.69229337883842245738 -1.8553406000942807008 0.93332922849609345484;-0.82987407509029553765 -1.6389053606107817362 0.69323500816405803082 0.56455657292662753122 -1.6531419656055259537 -2.024981962479467601;-0.038904354011272138103 -1.6484976885038851169 1.5504964217442731567 1.1154814830616270882 2.3154887451929213604 0.54766682185629844692;-1.2827367667577354027 0.91014002453260989256 1.8681565954376131433 -2.0920656570942064434 -0.78850531550581537399 0.71371280054276875493;-1.2337050128115685244 2.010903968988090984 -0.56484031172750215344 -0.45832358298868497437 -1.9664659008525151584 1.2333089473353051613;0.063287109939029070893 1.7431157928143599101 1.3710146533750513509 -1.5634675299541263005 0.83340682078436556512 -1.7701651156622897343;-0.74489719911551466325 2.0716493528216504139 0.79006448703843268344 1.241464110435739121 -1.3152713258531725238 -1.6426307140509270877;-0.56580310251149079637 0.97835192802980830429 -2.3725294893061019685 1.8737842205945212104 0.31558432918209061713 1.0749005419611490364;1.9845700662751848409 1.6162465139471355879 1.9584523218075045037 0.44273736084637826949 0.14312070620935002374 0.88573402495770825471;-1.5745681631652850285 0.27886486421751621734 -2.7788569200341473042 -0.45954969787687627303 -0.91574799250131788675 -0.33907060828904528327;1.106374832376992412 -1.8883815866611148859 1.7736309653463087077 -1.0750281024781795924 -2.0669547149378941775 0.64811686576799121262;-1.8712681634950147913 -1.205526053953308363 1.7399407001330182698 0.00011636064418882633657 0.1374143254045463447 -1.8619083828992477603;1.1023967117204225286 1.3911310492223596391 -1.5644721209855552146 1.8258189473088719534 0.30252919948837292408 1.4992235712222796717;-0.81009210748804305613 -0.46015629267654861723 -2.1411661365587093542 1.4875620957640887099 -0.86470835954227098785 1.6841999167452084141;-0.81975533096106290021 1.9485519669534880904 1.9183178336489603577 -1.6561967536351844821 -0.033418964731928083034 0.45294657906366031508;-0.51867638187488085411 -2.1404585962265678667 -1.450526972166437556 0.01706668187926172961 -2.1205913177325399488 0.068364576481186323242;1.7857936312917030985 2.4089379836021325154 -0.079794399488218037408 0.89011246185773773565 1.2390523616943411866 0.19349534066837562052;-0.69950029165519700403 -2.1808614424107921614 1.2365431485529956301 1.9916618036349420517 0.50438999142962015476 0.09870737127497979102;1.433825694507652404 -0.58113934003249057003 -1.3551547009573965408 -1.3125083376005113323 -0.045199293979767581064 2.346316739561531417;1.3584168637878140107 -0.46862264418869764571 -1.1853655066372150717 0.086907127454448909742 -2.1460074966564146592 -1.7716348361098699371;0.77330392842786155327 0.85162608322628108315 0.76980917104889012847 -2.4848571152029967912 1.6191761621284066486 0.76605146896168752058;-0.056089553996301208527 2.1668765979423962875 -0.70896099928491851383 -1.5596487759483765867 2.3962616034574941715 -1.0444540529181147726;-1.3915715188557458148 -0.64672404236423242097 1.5518731084038486223 -1.2768331987820413786 1.5850178391884301998 -1.4592540571712544484;1.9124543457339733266 -2.0896024984096497334 0.10971997160582094843 0.79351166970670516942 1.1138418040613653481 -1.0803381245833330038;-1.2189113414206367292 -1.9038011839190303043 1.0266471413524376199 1.6747568268088206533 0.26462888862214067887 -1.6226110784254990094;1.5394196077010688928 0.7131263044735223211 1.4701239439951805377 1.6273432461283652284 -0.71140751490317599703 -1.612812194709937863;-1.716609020306840927 -1.8741224376771601356 -1.6682419680652442739 -1.0599549214298804589 0.06552222400392056223 -0.57393469542529751415;-1.2534975718323577709 -1.5050539971125753702 0.35665440105861312414 -0.044376282154300103477 -1.8148748146315774044 -1.950834061124644192;-1.094990964469475303 0.43171128663334157327 -1.22446145822825736 1.1065901019403143746 0.65986771146449185732 2.5450911379875456042;-0.97142443794399335744 0.19027015443807954176 1.4270049885727549288 2.273092943215519135 1.4680639185854027495 -1.2806264573918197947;-1.5219657901089496121 -0.60426806183203207734 1.7854150694173862579 1.6084555351707710003 -1.4274802655996599032 1.3644478897209177948;-1.245617943031522179 -1.6792225498868982303 1.7825252683570858014 1.1473309734507419755 -1.2702150761302386517 -0.42630494706399379989;-1.6970764373875331099 -0.36993738232007988831 -1.7365237927949872532 1.1860637317030184867 -1.6059618460497990799 -1.2012583645496364149;-2.062114202026086307 -0.61587628039856645579 0.50573030794811624222 -1.6784412442252696351 0.47865359559404352385 -1.8055221273013113414;-0.85366554827489160573 0.48778021711684571571 -2.0042762900402886217 1.2046898641401877494 1.3947545107376908557 -1.8352042944300623883;1.6186154214994161737 0.59119823032806750884 2.0332541123457219534 -1.6782727875472440715 -1.2001563008164470858 0.31761986135085867877;-1.5498457377901855292 1.7933335517230262202 1.8558801622196750003 0.75294160134151089103 -1.2705989642402708562 0.26057558488682530662;2.2753712585307224181 -0.38656596939839166227 -2.1929617109363848115 0.1832504116900307567 0.66199424536929052376 0.79170035334431010376;0.43091696221912784148 0.26159793540056330841 1.5694568512078799216 1.9849089151372012463 0.0089484300130933842887 -2.2413178094559635944;-1.4608206343516398906 -1.7333453120765969224 -0.73378401961586381397 0.62852798237313389773 0.60751181375295393305 1.9750201667453188836;-1.7167887632604343917 1.1182203861276736045 1.2621668254925257902 -0.15351071348966283114 1.6155127069099297632 -1.3932638447185901054;-1.9794855552420820288 1.1502695768688506739 0.51816503136197122892 0.72365680730242720742 -1.5103647655956213836 1.6505924912212377453;0.8940236754677248765 -2.0010743689945935664 1.2216547328093187996 0.92362857757983962692 1.6292907159702163522 0.76240614213295643253;1.2464166769937399248 0.56345735414800757201 -1.5624545338523487814 2.3382138057993304692 0.38078998780801032176 -1.2405119717611416963;-0.58417259212099847954 1.3329948523324721688 -1.1581107618373982504 0.97911192476766006898 1.6634521386103842122 -2.4237744780284224966;-1.0568998286351345417 2.2630699680819525987 1.5007984759240842187 1.1883050977469629128 -0.8448938787131908823 -1.0007886563329424501;-1.8482665053389732979 1.4725587069719243694 0.34059943352186466958 -1.1352311218822244143 2.0021426462894416076 -1.1941484274380123054;0.59445308278351693954 -2.2376070304055146742 -0.60371975134234712179 1.6127778161107508836 -0.49594375377327337695 -1.794189026185831537;-1.3045243382801714471 1.7958980617077660025 0.99195760980412495122 -1.1930365750864897478 -1.2788126457169932682 1.7263056495137527602;2.0443039596401724189 0.7206698762261596336 0.32768962387321981522 -1.5989342125682295404 -1.1996522994826865904 -1.5597985543967076705;1.2828378867593610568 0.0070094491736933817877 2.3110494847589659884 -1.2464874966353163277 -1.9777693224336383437 -0.52075541797265678667;-1.1253369242930151284 -0.79582509789297295466 -1.6927685541896970722 -1.381886873626073875 -0.74531654260977553417 2.0068358307008375974;-0.89917951459063227837 -1.5993259023313730616 -1.5846359688504110252 -1.7327150545065990173 -1.2791477172246923377 0.56431605655273098243;0.22590001600141251803 1.5461939110850331236 0.71250306970667121043 1.5286976906232068174 -1.9550552993796297407 -1.5323985945623217475;1.9200243556035372361 0.84679978207172212912 1.9351602503356168938 -1.1982893889505714657 -0.95857603655138601262 -0.77416798318825996716;-0.26120793048548673898 -1.1370043991917155868 0.90564284156715602059 1.0578294403073720265 -2.6103576581919480937 -0.85456152108909722021;-0.43097305922575246395 -0.37538102390640359918 1.9903415268471122967 -1.3775448367495086721 -0.87872776184106271558 2.2453174536820079688;0.30373534119891820726 -1.3246113446032670158 -0.88041800257944902164 2.5613644473928953715 1.4786611085476790706 0.28250830203071580771;-1.1624029808168687694 2.3891063695252001686 -1.8838353690909341864 0.032586500564091173959 0.083997304235923830884 -0.90556827466408340577;-0.25593600018503592786 1.6486114822772230948 1.7954859624758505721 -1.7257350530510833231 -1.3292522466771319323 0.93938189520176396119;-0.78567228153132984136 -0.089643921923893032933 -0.71864028756908437945 -1.9039679945782872483 -0.49314725212731569393 2.6198900562788081103;0.57477460645088207514 0.36683928873934773529 0.33958976037040805585 -0.49314891535601212968 -2.6964754076300017083 -1.7850937676359093231;1.4896418924020402574 1.3524575124952107341 1.5364191677123333335 -0.29168709384361524162 1.8412470229057362747 -1.2829058605786065606;-1.0275854033223432715 -2.150408864765698258 1.387461469054928731 1.782466166926779616 -0.16993761889605163429 -1.2474136272877771603;1.9126246150693910764 2.2319387659032416948 -0.26860611045352300597 -0.13995954961887019374 -1.5946009167171371068 -0.30418578627437842243;1.9339513957271292632 -1.0175344984421719197 0.047948179670922401463 1.9134570113074567121 -1.1420738982858518185 -1.5116555655519783308;-0.4951885354083076507 -1.6090428732944901391 -1.1232132728506099006 -1.1600781798788715182 2.0933997353833664334 1.3772600743389811218;1.1732746313601074561 1.5755992965919765059 1.4218360940553103067 1.4675797015697105152 -1.3725630212649904127 -1.006100717746304829;1.2602270734646650041 0.43306143423532200698 -1.1155393157050998987 -2.1509939451016046874 2.1022579864890453827 0.047528115693591596602;-1.3288512013312818727 -0.024258314760260440979 0.30075779767365384831 1.8974682645977343221 2.1552120980050881727 -1.277288515154235693;2.2732207269356243806 0.42170003787960075314 0.90712815728035534057 0.83056342431084140276 -1.6709342588574633837 1.3116623264715929764;-2.5280851567046345174 -1.4621062687957899762 -0.46896444750005217283 0.59239481007123262479 0.14581418245251012711 1.5731344749016020756;-1.4689586444821356448 1.5529132473386626501 -1.4731819954569582709 -1.1470682859987995084 -0.91183995182435695348 -1.5744319565519004911;-1.4502614255085128914 2.3053900079953835167 0.55767797825087539465 -0.79122911025736930579 -1.8224787630971555075 0.56935083317928936175;0.98490016480055964099 -0.5297317292029705138 1.9705125853803087121 -1.4786274667694687679 1.1772895449451301619 -1.9539158133048757371;-0.88134888223724283662 1.7268388249423649583 1.2352588976344618388 -2.2422134781351625854 0.33178958876622932639 1.2170699883458984125;-1.6995533309311601222 -1.8955076755807676037 0.59184379343638704452 1.5469447695767419848 -0.61748357636190109865 0.76616412545769418951;-0.73912383165487005598 0.63323314844372247112 -1.078836348966091041 -2.0535123786038984584 -1.8568410259183456557 -1.3280761667263494274;-0.83448100149333637177 -1.2983702492235225101 -1.485706345294242281 -0.50689342976105944416 -1.692137315740505521 1.9657866839718691754;-2.0063916120664488929 0.42975457885986800832 -0.5105336355877974075 1.6954949338545504123 -1.7835646009940446799 -0.9910534205843577471;-1.7901244135263518764 0.75153705526663849845 -1.1519406831058041085 -1.9339488847088062151 1.6780795871986851076 -0.68110192462377827649;-1.4670957452677633182 -0.693047372087146063 2.0140240972222813731 1.2498308492027345729 1.4628209824600031386 1.0179734995169118505;0.67334296317144337607 -1.5978611486168923239 -1.4224988863282859164 1.3789895671574496916 1.5132799034147748074 -1.4328067906530295161;-1.518844982016115841 1.0975559801256398185 2.254905416942926788 -0.46768280264566858273 1.271615420272787178 -0.98215881906671043122;-0.20565849484957321458 -1.0594017220807983026 -1.5822214413814015277 2.2189708643663461629 -1.5138799628006258668 -0.90971084552930525646;0.18003181722340536042 0.36946438631498706995 1.6592285729663875937 1.438053099215402586 -1.7942708170335783802 -1.7373979714432361554;0.33417794956212432123 2.3146588171143269719 -1.3719526111318300909 0.83351429299920010152 1.0542348031264954233 -1.7616513573548213678;1.8735163832286050312 -1.7088627693920637185 1.0713933954978815954 0.23819265698010810839 0.86228552961986282277 -1.9087842718108538609;-1.3957302288093835774 1.4507769233136194043 -1.8432614190086298311 -1.0942283214302563898 0.79203385804896897504 -1.6428455138594042495;-1.2852439199850917984 1.4767125245746326456 0.39263825132908125592 1.534085582387976654 1.4179982854068038378 1.7503854813927826051;-1.4865470904633348859 -1.2162870485811743126 -1.704362876107184066 -1.126847851120423627 -1.4229571803984386591 -1.3029012886922124448;2.305717800081587221 0.47980249459241691712 1.842286885604075275 -1.174593683655852594 -0.19849400814165873985 0.88634248406461846326;-1.3632769490702827397 -2.2652485880811501495 -1.4095483216167961071 0.081770618391992663798 0.015167863410698914292 -1.7502627620985207191;-1.0850144840711861693 0.090057115674180121534 1.6491826599639802797 1.6473199464907184453 -1.6858055156698144028 1.4758407548442282753;1.4656135214301464487 0.23012045524203839086 -0.82270739735884113042 0.98392159938562795407 1.4632893279378489382 2.3211577287262477043;-1.6752050612845708066 -1.1798294148531196512 1.9857326012067391119 0.56735193904864245074 0.26747460448253873588 1.3593216759653470316;-1.2203250378314580704 0.0093905737377978637515 -2.3135545106207691113 -1.788837482922920552 -0.53007215613160807433 -0.55252806782626184834;-1.4635947231699169002 -2.7753764046825235567 -0.25414200284462018509 0.38148743600783291408 -0.79265541889392820973 -0.47651142323194906059;0.8603925620817248765 1.4793259026589864469 0.69266442963415164602 -1.6131833481582482648 -1.7016629347951033324 2.2546036497076706873;0.39596951140573949379 -0.55016239345950668227 -2.01973324741214455 -1.4051492168300534491 2.1739099646367368024 0.14089219283754270129;1.9836155457902286958 -1.0478696327709886571 1.7663937131030531535 -1.7671931350728637966 -0.030873244493290336737 -0.38625337534191056532;0.36851191805223204589 -1.1448007701689477678 1.828187916297639326 -1.8590064649713151645 -1.6549930808033432861 -0.84825425626949002567;0.040897833716104885216 0.82263734422951084735 -2.2889018655671145019 0.33030497748745019093 -1.3074128381024829881 -1.9662569090682644468;-1.6864742275891442258 1.1452652566242547127 0.83126832492269620012 1.6147480660723747548 2.0164925047959005866 0.27852965866219081548;1.4840948643357421144 -2.1503621129685321911 0.59641228069563023695 -1.907839930180868393 0.20666844375504284104 -0.570805753082631262;1.070530194305427063 -0.81858537450482760089 1.5386983446900930339 -2.4467908762607857298 -0.29080292316567724065 0.9740522489729492861;-0.67458677174356362904 -0.77926344535924851886 1.8146226129193441245 1.5701335678656827 1.9620640186159821194 -0.85930095083466306871;1.355639692962376408 2.3164622742102389807 -1.541364823836960829 -0.8945351691936678229 -1.0787467851981480393 -0.64907725554192940987;-0.14638490852110241924 1.5787531389720466102 1.5844037036161293663 1.5121558033802879883 -1.1603985472647151411 1.6493398683176108133;0.56091572331068917379 -1.1463573437703482583 0.58518810804619691979 -1.7810562006281589476 1.2495872866445625338 -2.1754964994547618673;0.8774641013499976383 0.24563700847384550841 1.6560808869871301852 -2.3266914437506280855 1.5703493208084027266 0.15958894568580769824;2.1154926969257754621 -0.28191516717677084225 0.068007173555477390403 -1.378823392724205954 -2.16817847502074601 -0.6198822162635403421;1.2229412011397551296 -0.9969261565808535952 -0.51708762210363068412 -2.3737781424966968302 -0.23220853909951269523 -1.5219717718127956374;1.0339136861803874812 1.9372793895915931817 -1.3542550282821386176 -1.9919199110364993466 0.19772766267137570351 0.89878176908836215908;-1.2193565983932301844 -0.23350610518412448502 1.0098547540893962893 1.5698161564964159265 -0.49609311953747992074 -2.9819764183639549948;2.0545434625351761682 1.2227421793630430802 -1.1183897315660160654 -0.42602860545403603565 -2.1161207173964640127 0.13286974823875360996;-1.3331068435857624799 -2.3693401230621251585 -1.4708699111057026432 0.60798266603505901617 0.4037492821244496044 1.261464166707707335;1.2031596030928866092 1.3382533773458247239 -1.7092373144125292406 1.9729707300106245071 0.77143822969193931449 0.60130337412998968727;1.7687741775738603511 -0.8185210648081466811 1.8385226479149030521 0.43605882892047703736 1.468472343265499136 0.72028901988436466741;1.8487425964749124585 -1.5137013798855973867 0.50107434353847035702 -1.4165308720677438625 -1.815242030574943044 -0.15668145623607268591;-1.8047708959935155892 -1.7317263901251374048 1.2557888184574821366 0.59960145438029355258 1.0827648204262911857 -1.9682787031985120585;1.1823436804766180863 1.288448636824939264 -1.889322547756900228 -0.89161415109269182011 -1.0480056872638832122 1.7040920454398020834;1.4728904913108431529 1.4216737477526284472 -0.76057095359283932723 -1.6265119398194569644 -1.4842889303962134573 -1.1502272546468306214;-0.4000203387106364139 1.3403929940564041079 1.4513124089319178189 -1.2321264490228323041 2.0296282920227830537 -1.3358701849364833514;1.3215651603154783267 2.0473733800797737636 0.39448909377002916443 0.19598613933375272356 2.3261141759997396861 -1.3384432056572510561;-1.9334357883006152434 -0.55509081293044948424 -1.4551592346528219313 1.3104218085091801083 1.7946568598765453295 0.6323083745151908408;1.8980360294590501447 0.92017985646501831987 2.1289177717665239697 -1.7712656365351104881 -0.26328468541191052399 -0.20220144021048039318;1.8583158203222778226 -0.42112914398522682813 2.335722460463759198 0.68474370141119034194 -0.79387761281025903681 -1.1019329324448998708;1.5121933565214369377 1.4672585491410987668 -1.5275900514602338554 1.5416485336318674904 1.6133388896367042431 -0.41774044720182501589;-1.4499853266933511176 1.8295535035919707756 0.31337694112598762919 1.2252540033244680995 2.1119297800767520279 0.11583757010168251045;-2.4972085863963706664 2.0436265388617020911 0.42207367908624376929 0.47333678950040014577 -0.11368864415888170483 0.81779196452146074581;1.7415339836140850682 0.99116879410850244891 2.4813070403889283533 -0.70792010179892739252 0.86151770160942775512 0.52951211833788680572;-0.60418549970923995929 -1.8575887670701036747 -1.8064870293435040249 0.031107941231371977198 -1.4592209729571907761 -1.3789730436165601457;1.7263927845731246169 -2.0206485148153050524 0.040226952283660896703 0.069653678639768484837 2.0803270447616810657 0.24932385266140544289;-0.47964885115912070379 0.35431612489028080359 2.3732360056314876218 -1.8598170090311629821 0.04193956963224669543 1.4359564961953736884;1.7613118529829221437 -0.48468573583832591511 1.5092751699051196734 -1.8981594575787801293 -0.86260470669460564963 -1.2189643665155152075;-1.9469488856745436056 0.87189783077009608281 -0.74569962043160564757 1.0866868641162319431 -1.7991064840702524208 -1.6841696737083011737;0.085568410235749972625 0.12243300938856095661 1.7751386117998533276 0.25221797415040625445 -2.6949336257192419986 0.98393264569100180594;0.74058893811305703814 -0.39370645259283654216 2.07970755630358628 2.3975974636686583352 0.84422659824500634329 -1.1283040978885672256;-0.92362900399083813774 -1.5420447901696316961 -1.7211991693165080708 1.1724377357517576925 -1.6919453607073609014 0.76667919937080963866;-0.41348510657785064737 1.7565236931459859981 0.0014926816311154975786 1.4742359257830155439 2.3102481656198814441 -1.0151173141102003417;1.33857734801936612 -1.4345570312621824804 1.4315068842026477114 0.7731883041009941504 -1.0797783216935967765 -1.6557035620869928749;-1.2203336118414693789 -0.016671787747181889688 -0.91158340204688959041 -1.7798701497975057961 -2.2748401708737460147 -0.15222409098268252503];

% Layer 2
b2 = 0.85677979058596431816;
LW2_1 = [0.80490249715668893415 1.1825843623399807658 0.74117479362720783964 -0.67936122448888303094 -0.056948098662664252412 0.78891807914803391277 -0.88807043776672167645 -0.20334317678442315191 0.71383730399922618037 0.10734054571949110113 -0.67320621069955388638 -0.35981453312862576865 -0.54014591195668870682 -0.15038587718927684533 0.68659802747383924526 0.20887700227429981115 -0.53356934374924847031 -0.5797085024412380605 0.56519466714841160027 0.10052534277787068817 -0.26983752898639096207 -0.72859996052775166664 -0.57114799997290333078 0.70101009435691175042 -0.53122738656901102861 -0.85281095577180832112 -0.5556426425754237286 0.4945908757513339804 -0.57755557482740305097 -0.38419988707048574605 0.4011574273829908166 0.12069029207387414748 -0.61638559416151694759 0.33516064836775033564 -0.58768148363137817647 0.61826350353060299803 0.57658460184862347919 -0.73849313935174076828 -0.29253384273620153255 0.33300060694691807628 -0.95060592738649030142 0.14553418218396832473 -0.22592604298472659941 0.68606979289540781508 -0.63356912055966385644 0.052008524369465229664 0.30650755065324153392 0.75987907669192622517 0.90595182534087614901 -0.5084692468620803929 -0.60611546828239448725 -0.10189512649759237262 -0.58977733245933772199 0.21655504948762527295 -0.50237728891675859089 0.555739199357541791 0.1970530517543889748 -0.71035903274576361888 -0.65583241585747553692 -0.70383332730043413061 0.28562526216455003114 -0.24927167626627619312 0.48421296809267827532 -0.18460032351062111156 -0.71228999003476989316 -0.15457331849817901315 0.15768679379315961309 1.5183845209038950852 0.11935890781465284538 -0.19362468859996734283 -0.59322028517111080603 -0.15543810307010327842 0.11275880616874026097 -0.0766274669454479751 0.96779183457872330898 -0.069330624652508693329 -0.079714956241488887922 -0.56824160566118198101 -1.5864617470234769758 -0.55912680539979719985 -0.7949277544666846218 -0.37847631094657224748 -0.76479115873263114889 -0.76202471635452229126 -0.39850826024547569837 0.36479337788685567423 0.27311812844210792139 0.815705258442312231 0.081762254896131827953 0.37643124557592899659 0.39055400925882982621 1.2844945272347576548 -0.035053518214238327255 -0.18425771696990481119 -0.77865878067973504084 0.11013318306015687509 0.78244625558455349612 -0.6693345121142711962 -0.31139404837132900195 -0.93521300601268864128 0.41845098196993418815 -1.2435226433561117343 0.4806419676297720156 -1.3227340709244359562 -0.8308419593598916908 -0.56625368404791776022 0.1807329538237874289 0.88833683217396908205 -0.39212641309728996086 0.66108627321518620423 0.088577010923251597863 0.52002888487851517407 -0.73078857416122722235 -0.88157563676898720306 -0.0061360469291437584952 -0.044941242141698735379 -0.57623602094738957113 1.047846103943751217 -0.51357837634222025525 0.24049918891668128906 0.67657104981388471732 0.82495385180807501158 0.95554847261133823988 -0.5281248680601258183 -0.83213463701594159172 -0.66628400829931144767 0.70287679020732940494 0.11869763042359084138 0.98880137340060247908 -0.29009004568720159201 -0.72738317155925114044 1.1443872740790173026 0.8899971213631823197 0.69126085048644447806 0.073229332761626020343 -0.41907538142164146855 -0.28433843931806862537 1.1355121771000482589 0.0066217544586707546839 -0.5384508561099670132 -0.31324569386246481351 -1.0937428104247068905 0.14879725390386053241 -1.0655390098761217121 0.42138025861526701155 0.67095171899942074312 -0.039708149208326992685 0.51568227444283465388 -0.3181164644450796275 -0.62690510837345325701 -0.62232635674349634503 -0.32582723088189191607 0.41256157947228544458 -0.19211753670811132499 0.14664645309721946465 1.5712989109983959146 0.92597360039579579283 0.029078330320333880404 -0.44323723039011769798 0.23115616849033762681 -0.30316147116364294822 -0.90445451430323620112 -0.78704984767303820536 -0.038219752556390214349 0.9733073310924454935 -0.18733048073296335034 -0.28556824588700024936 -0.56482292461979066722 -0.648670026776823061 -0.53475690016099308721 -0.0082763470625251914919 -1.4262207309912373621 0.83296902986949283854 0.15806670809854264648 0.62682861183115590187 0.16022394130057562855 0.71328635676179918956 -1.2130319469229824403 -0.12978464623559624047 -0.28409849063233416633 0.34187004000441562068 0.81887032224898947952 0.21855244322766095855 0.95859036884390502742 0.96282829192546159902 0.12087231352511948468 -0.43544189137869748762 0.72150563068334583328 -0.27646312305866022063 0.12409245063428281375 -0.15205468151290368883 -0.71491944116187555736 0.81915856883455917536 -1.3722868901553160192 -0.33365710394053804677 -1.0788652603526986962 0.28181490673142928216 0.92354419992893355129 0.86627379658280023733 0.2870475676382342467];

% ===== SIMULATION ========

% Dimensions
Q = size(x1,1); % samples

% Input 1
x1 = x1';
xp1 = mapminmax_apply(x1,x1_step1);

% Layer 1
a1 = tansig_apply(repmat(b1,1,Q) + IW1_1*xp1);

% Layer 2
a2 = repmat(b2,1,Q) + LW2_1*a1;

% Output 1
y1 = a2;
y1 = y1';
end

% ===== MODULE FUNCTIONS ========

% Map Minimum and Maximum Input Processing Function
function y = mapminmax_apply(x,settings)
y = bsxfun(@minus,x,settings.xoffset);
y = bsxfun(@times,y,settings.gain);
y = bsxfun(@plus,y,settings.ymin);
end

% Sigmoid Symmetric Transfer Function
function a = tansig_apply(n,~)
a = 2 ./ (1 + exp(-2*n)) - 1;
end
