function [y1] = muspNeuralNetwork(x1)
%MYNEURALNETWORKFUNCTION neural network simulation function.
%
% Auto-generated by MATLAB, 16-Dec-2020 22:43:29.
%
% [y1] = myNeuralNetworkFunction(x1) takes these arguments:
%   x = Qx6 matrix, input #1
% and returns:
%   y = Qx1 matrix, output #1
% where Q is the number of samples.

%#ok<*RPMT0>

% ===== NEURAL NETWORK CONSTANTS =====

% Input 1
x1_step1.xoffset = [0.12641;0.28226;0.23837;0.29182;0.56556;0.84557];
x1_step1.gain = [0.588237024226542;0.37829065584251;0.468501474608391;0.450026776593207;0.350757812253373;0.327068339294154];
x1_step1.ymin = -1;

% Layer 1
b1 = [-3.4330192552146505669;3.366384540058448227;3.2737846697114405536;-3.4267526391656493168;-2.9218661667021756934;-3.1761948742787309286;-3.3562800266714543085;3.4258002991541678384;3.1589653058152329379;2.9147286390781963483;-3.0738679498096845855;3.0325366976629752891;3.1079412891558217957;2.4339211246070169281;-2.923141482323047935;-2.9589371114820628428;2.7771321083710409638;-2.7467040889682707849;2.7415545914438292918;3.0916576930555077496;-2.669878001607009832;-2.6727331432894159136;-3.5699858621150131199;2.5310335679512356855;2.601304124000654916;-2.5223761688076158372;2.7047263411900446251;2.6181427414758493555;-2.2309337622514000543;-2.1060260961376986444;2.2442991755659629227;-2.3129706645582071012;-2.3952273006703785896;2.1735808342392970438;-2.1480277435685324328;-2.1329838405542904667;1.9732880691958156749;1.5263413145025199746;-2.5601810377292002485;-2.2359122279979048997;2.0005148197235929075;-3.5626223153183858017;-1.940439532380445975;-1.9029700903343709228;1.7664288344578287226;1.5899466257418839454;-1.7432600666546098633;-1.7986366854884443534;-1.2042544034635269679;-2.0551159247269534802;1.558807963305613109;1.7351348086775173485;-1.3282284977168805629;-1.214297225574630712;-1.8725524334964289697;1.1621489738364587652;-1.4189890256616819464;-1.7433518686510998119;-1.2680864320245874843;1.400217602582316534;-0.087836761295977880404;-1.3314670187643395938;1.3515055587262767567;1.3156905156889060482;-0.87046763337621524403;-1.0759594463773645145;2.029252127882934964;-1.0894668684519726032;1.5871628451673467364;1.2739361232020194326;1.8022971069552020662;-1.329253568492466453;-2.5594017788753959941;-1.2029453563136625061;-1.2641193083933073282;0.60581459322709863002;0.044430809295279059812;0.68508982259256079317;0.50338414022983890561;-0.50744508815007249858;0.68315549187931534636;-0.48781030618551579625;0.48923889625923677738;-0.71903618763393095659;0.8052714881007421166;-0.54388624925685402633;0.14991968757634321907;0.17055867209560371389;0.090601534174437198255;-0.83927835491819524627;-0.55133249808524276148;-2.3755018926332724938;-1.2398170073863608032;-0.032241382947011600069;-0.18378998165319573865;0.29725335707004402197;0.64802028764823838003;-1.0213723293440335471;-1.1653469568151058056;0.10395837899992821374;0.2151857139786447215;0.033891404654127474383;0.26427557172422816434;0.080813826348638845287;0.9999633145831809955;-0.17347491267295939155;-1.2618817667813051475;-0.24002857549886838506;-0.10455884593858549847;-1.2556896474765208982;0.26096506107835137911;0.84816658269202016562;0.29459746827859500939;-0.039502461414149592223;0.34111515196770758607;-0.61977648859560796613;0.38955173651979968508;0.15537695191221481683;0.46697029737176037889;-0.85487565836697221311;-1.0921868243385517427;-0.85343675779644057044;-0.57645213792244498485;1.2241710119900224285;-1.1055642829599872101;-2.7700114918021969679;-0.65769826015659105245;-0.78923941099429284485;1.1089355073260334095;1.0895508341039343847;0.94490089850275027494;1.3054336834691226965;-1.3102275929512008368;0.48943699766934911644;-1.690355398388375896;-1.3883833164698125007;-1.2844031592874904923;0.96792025881750332061;1.257244341321944292;-1.3422521274433780736;-2.0860769977394579833;1.3564825678392316011;-1.5771342266857957259;1.4881799419312602417;3.5536688341196160934;-1.6739437265609393712;-1.70275083265892202;-2.8815229905088615148;1.6292811305641605735;2.4483043939452922011;-1.5407736113092962427;1.8854779460715425099;-1.6935956860455350093;1.7660819857013696499;1.4997130745640376848;-2.1639778728475342895;1.9520966760204740975;-2.0952048721350595706;-2.0744374229848556723;1.9803828864658246101;-2.2244294885873907575;2.0800811293097436483;-2.2369332702515425382;-2.1674124888200760886;2.5225645464178816368;2.2619431730038335182;2.1262640835990227473;2.1508527187080983545;2.4430873432305766357;-2.3406517180960855207;2.6294183556438328608;-2.0282333967535590702;-2.3606373864694685238;2.1391863067161085432;-2.2964587897995429877;-2.589303153261605317;2.6885710989882749544;2.6662621897748426392;2.8336880311634029539;3.3283272489745669986;-2.8734192019416617825;2.7789112837940681544;2.7237702340084433139;2.0928830484189875349;-2.789225348677110361;-3.3484232501906334711;2.9558672193137947026;-2.7505448255808966351;-3.0956630728594860535;2.8855268930369950553;-2.7409468617920866862;-3.2577073721806684148;-3.4710644641114956066;-2.9029301166122172262;3.1946816150352685959;2.6848320021107334732;2.7230834718638976533;-3.3435268686231798263;3.350947832913517388;3.3890763572279292148];
IW1_1 = [1.6078982981939082819 -0.77491958484839007504 0.52770594670648340863 2.6095860976525173669 -0.34095926112744201486 -0.83424826520602268776;-0.25255730824303984638 0.47712980434768564875 -2.189724929199165171 -1.7465666259980641151 1.0808838871585506602 -1.3943195096181770776;-0.66630186576855332525 2.4118721976635368875 -0.83209848548918197153 -1.2825732402697576084 0.9049653904971046714 -1.4524011156904721442;0.6775879568338250003 -0.66039641776325896938 1.634353623088123042 -1.6664406918793313039 -1.6047720481873855025 -1.1758528644939783003;0.88320523162155895047 -0.9538819247019451053 -1.9302637070985544376 -1.6442215514435127854 1.8962934832021456355 -1.3369373548376490834;1.7062649821389550553 -0.60926689926578547762 -1.8533914842701333381 1.7654677676857826185 1.2170895012796216772 -0.52694248902417273328;0.8573452400684522523 0.39539710365466584907 -1.1842730907660805606 -0.96921526585963646561 2.0047880277213496747 1.7380300880416508225;0.081092005046522114275 1.3588092459835410253 1.1313927315369358695 -1.2093123724278522779 2.3278234672891131574 1.8513864180836676621;-0.7751459876023192308 -1.8732220612200800591 1.3323053709920822385 -1.2203001943323887879 0.42080815313116526344 -1.677522139761901343;-0.44739329134744232341 0.45953628400251461672 2.8292964456995877143 -0.45527978440755700884 -0.28760995878112027846 -1.833766027610840732;1.2177079133170269909 0.80598217095097057783 1.4541194063161639871 -1.2227202966921058014 1.9027476897490620544 -1.4106367786065379111;-0.37616483486970092587 -0.59212817718036114822 1.67015122513361014 -1.755804550069252512 -1.9555235488180415793 1.0922195350869097208;-0.86608670557518052657 -0.82362726022615828647 0.057330220171913554017 1.9334501087006694675 -2.0170828325245966361 1.4178728428184401711;0.35288071332531628643 2.7949139135761953412 1.1582046897057924895 -2.1956427164477156921 -0.74644867799579595058 1.3386974820133512587;1.8635081208678825337 0.70668054486746478826 0.79024491985162792496 2.461051562311100227 0.075372905769454920377 0.81806067564754925137;0.78255365859207970392 -1.7919886776133528983 1.9180063562952074374 1.7089343631348203889 -0.88099558696070190411 -0.15207663650433705937;-0.050566967767494967745 -2.2512433849696464883 0.20659425716917065308 -0.89385827664498362921 -2.2598487743018740304 -0.017499477933106192401;2.2214803245726906233 1.661916477301374151 1.7023735242668218692 0.63169626199907102926 -0.82998378500905045652 0.30849105446913183126;-0.086075060032170483404 1.8680768603624020585 1.2248880794430292429 -1.4328339721105995963 -0.77059920694556260923 -1.9346698902812058396;-0.50131851797620663458 0.59076954227753697424 1.7503149134047502056 1.0120369849678794161 2.3910572556159950253 -0.58587246135793280555;1.8906560980721422993 0.054105929368347287223 1.7779387792015883818 1.2593663026254617865 -0.96468030750286559716 1.505837050713564329;0.55754272701765217324 1.1186167420843629028 -1.5318637211933998632 1.548682208310680597 1.6559811662936112509 -1.5344826125611339407;1.4958383302284250504 -0.24344291752244290317 -1.6565097819643062049 -0.2640819820017199504 1.6494756417869340659 -1.0616278725822712037;-1.7587776285450464897 -0.9727114066146479443 0.91918407778773347783 -0.95240867138712526074 -1.8987339818781368006 1.5326561004028567137;-0.76758929714653945098 1.970266756309822398 0.3353538112798102877 1.6406436308121408185 -0.57597456402010138721 1.7313171120894499388;1.6838522727179061622 0.070820510373068676357 -1.2569707292011527144 0.72941908104426467219 1.8542200828681616454 -1.7644284329760440144;-0.98704694968744688399 -1.5459129732650271905 1.8739193639384172929 -0.31110058439441828915 -1.1379718906338820439 -1.4908574322877332641;0.080673758151388275106 -1.7829246255986255232 1.8899888591531361914 -1.2909915294639771055 -1.3842138551176510486 -0.74693015234749504661;1.9941436101361482702 -0.33736072002049882768 0.47869001794184151688 1.930330623000864998 1.5287649013245667717 1.3012279997421372091;1.0273433995716747535 -1.9266988478977338239 -2.7064547890622434601 0.20386417772151571581 0.62147123948698368423 2.1500440430103413547;-1.5252512803092046489 2.0941626812496108023 -0.28966916801383768565 0.61720333575349151101 1.7934968943231570648 -1.2821015894997827012;1.5019041139827984388 1.6711626546764977164 0.99804960379297691375 0.68724697350286312325 -1.6663490134762275474 1.5079861375682590552;1.9881715135872264355 -1.0127672705734469538 1.3091518922606806274 -1.4573813955147723043 -0.041517032891877088396 -1.5199776200170971308;-2.1497919198244423988 -0.7980687745511390041 -0.65244416699125773462 0.67305508733942109867 0.82330949375530881884 -2.2463165389135002492;1.4310772849169866028 0.86490399456529687416 -1.6211987071568698671 -1.7647650788352386986 -1.2261890718015067137 -1.0331828291812821252;1.7676911307300016141 -1.6124230805439700998 1.1484815908010150842 -1.0068821144843780324 1.3336139290343806962 1.1731384132020850064;-0.76353338863081321453 2.123836613549361374 -2.1023134923816035879 1.3616454163538220801 -0.72873912963172149393 1.8001166149640004388;-1.307667122723013664 0.75964500071310325779 2.4624996854696625803 2.4082454589447590543 0.48886717789361677777 -0.49908893274733068246;-0.50178874099292314348 -1.5457440635314447785 0.95912430504121237718 0.34274744234532583675 -2.4335950456789476881 -2.2845526837938656683;0.68384486466269422955 -1.4763809675466190718 1.3809870629867668779 2.254186312076592813 0.042870344787223332861 1.1180476550994364882;-0.9779565831234784401 0.69287094998287634962 2.317550428080386915 -1.8654795245281052818 0.044799927162023571448 -1.117683464287422046;1.7923232289716657384 -0.23696983315856187668 -0.97155860433473950621 -1.3907707201439085676 1.8727425982074881183 0.46006972470163498556;2.4310894410037686697 0.75313404609171297199 1.0797669930883868616 -1.142204146285098032 1.247370224031516095 -0.85303886072915147132;0.63766105680594320493 -0.13394298372901852767 -2.2032218456615382252 2.2916231919724898702 1.0610501427108527395 0.03240440997440546117;-1.3480372558783244585 -0.52161043207329960136 2.1468440618477488968 -1.5594628461400787955 1.6569727389913306848 0.060188735790852751495;-1.2608014064784238695 -1.31433605362372119 1.5394407849317148784 0.74457842525952189217 1.114626000183467136 -2.1691059082708155081;1.264104044384855241 -1.961245905290363023 2.0547092635248662695 -0.18764661731043733028 -1.7980484335120732187 0.072511215868716005772;1.2552730465699200035 1.8870466319584608961 -1.3968100964310288248 0.17182419095257342456 -2.1593902312098762764 -0.23291381256691856549;0.32364380489299043875 0.86843840601304467253 -2.2159686912544840354 0.87213929287124636325 1.7937595686283067664 1.2707230729946605852;1.1526743706157478453 1.4910334280537818064 -1.834619650648974698 -1.204059657594745758 -0.49745369766129077238 1.5708795304671274717;-0.29551789482803175746 -1.52238026893325884 0.78358169504050767529 1.5325222249835663835 -1.074535589452835227 -1.6421578840012742706;-0.41561036221864799955 -1.7021110299037709446 -1.1760982959962682504 1.8245267017676505272 0.61732985130375916949 -1.7638997781795164865;0.80535696459935157687 2.4792790301494247451 -0.4920694605613814554 -1.2902780952279719884 -0.50095346954595287858 1.9149089919505344337;0.13416000730018817766 -1.8581355618965786913 -0.98311401848030310902 -0.6773408102883549109 -1.8665474901660523699 -1.8575085496664163198;0.46585426305116589552 1.0681407138114691335 -1.1211934975783575119 -1.6574894592261002479 -0.36823818959608800583 -2.7502336157666915639;-0.74325040318335522382 1.9338818268114907895 1.5141021004163264241 -1.4550016509640082418 0.78401904511924669361 -1.8413119481822184387;1.7368834400601014245 1.4813716640190848217 -0.13461789577188082445 -0.75539582114495518184 -1.8752330717930525417 1.4886963738674625635;1.6592452576862353197 1.1009984638370355903 -0.82029876757021513711 1.3870115560231399687 -1.2006403433898458211 -1.5074653142822964647;1.392998149908254879 -1.0528213806688178078 -1.2314059536606773992 -0.58935721913529537375 0.45938740116559922955 -2.6947623284835149349;-1.530558438260753551 0.36482834855895579507 -1.0177444861336617521 1.0322428544612274326 -2.2544813640550880329 0.099742089828167790344;0.53524535075594914524 -1.3601373543469352789 2.0688415545480203228 1.8605324200126802658 -1.8306490759530451573 0.91064607033562239291;1.6911035362217043954 -0.57941288382950739688 2.1861359909517710243 -0.85406807320437494457 -0.69727876412536704542 -1.3587154183729606149;-1.5207748866297388091 -1.5724213586395514586 -0.32464015343792540502 -1.8956503897623084853 0.29162810548694123591 1.3172719022971977054;-1.8407195667173708031 -1.2252221169018695512 0.17217429164342573644 -1.8976848793645433311 1.2317408785079100308 1.5850753052107893204;1.6926609489554313992 1.7304997128150254593 0.41415480135128501793 0.41578314938844523896 1.4447988468427004349 -1.1366701532778620276;0.39332114769341175453 -1.55231129177852889 1.4329394464570157641 -1.9668104175337377537 -1.1457203574017906789 -1.4966932127914798212;-2.0669116943218943661 -1.0091242264301576448 -0.085157844356916576056 1.125973156309411527 -1.4010026027024204964 1.2670944308604088491;1.931623691258389286 -0.65104532479917975873 -0.91887359382921784956 -1.2875446009075417475 0.099380700494387338995 -1.889234672569694462;-0.8168469341721322774 -0.24671863174678790309 1.2693913701022772056 2.7416917894233296948 -0.98235424553018879656 1.1906363602224434572;-1.6756563731295326392 0.054099076956083333445 1.481396041942770303 -1.8680209738727611146 0.65065686330250593894 -1.3749452430205668652;-0.52235962886913722691 0.85710460306573199585 -1.2314086310863829876 2.2944112898764004171 -1.608599678090461893 -1.2171569985895496213;1.1846199408077824344 -1.0367062637108905854 -1.9477898508568756153 1.4729177053164113076 1.2955157083721640099 -0.094390233359577316308;1.7993905656010580341 -0.59287486589713811469 -1.774347160679240476 2.1692575922978378777 1.4214200068275109068 0.29997696101805393365;1.4390093191113069171 -1.6952086572913420692 2.305808096813488195 -1.0069218919991715921 0.2696919949914587944 0.20723639342879690561;0.25726317135755055743 -1.1577704703900169037 0.2230635631927714857 2.11852643884162406 1.0560822026642984195 1.9876677068232502243;-0.44638462018793911845 0.49977410000872679596 -0.18151080427892102298 2.8633800994777796056 0.82676021801613253093 0.30412644302816399522;-0.30376411203581549225 1.5848452695434156468 -1.204354085527346685 -1.9077288892339543391 2.2483716358662406698 -1.4452614230185276689;-1.030170580633061661 -2.6470852916508360586 1.2730523546920431421 -0.219252656721243111 -1.0523256042628350571 -0.64348404124522262659;-0.37867661398197038913 -2.037248012018381349 1.1433648920727830234 -1.5889991540576631213 1.127541410669872235 1.7436444292637778286;0.3915604828205803134 -0.55990192369602265199 2.3556830088584339578 0.17834332643537328944 2.2965845290760165121 0.091818021663958443446;-1.0683587662346061276 -1.8168450044897470619 0.8557910107971987701 -1.7782844672421400656 -0.77940589103170754282 -1.2704284935815894908;1.6482194659658817582 -0.35591701445274936955 2.4654605309343144981 0.29938398328177889818 0.17040011919103797977 0.96975751707036350613;-1.4740006789747324145 -1.2622480524996637641 0.20173168829827506365 2.7531641581197976443 1.0540580027886450321 -0.54505309781355337773;1.05584762675794952 -0.44983763071780646925 -0.49895717909858944283 0.6202959087207949862 2.5311242938634195276 -1.7690956118511682593;-2.37600864657267552 0.40583440395981007498 -1.1629249072788390151 -1.4808231824792321696 -1.0187272479034215067 -0.56381824156252469127;1.795344947302672578 0.83940683357358869543 0.35263172371069395616 1.7788331628387501482 1.4152884929998725827 -0.9138624347626944644;0.31962160577775944326 -2.3602951702858807614 -2.2047019702494301541 -0.13011228555725198874 -0.38026972593224550589 1.0381143835080857141;-1.1971878554808654815 1.2451570453823017637 0.014010122422492591113 1.6169194668640733958 -1.177751353546075741 -1.3902406664363864408;-0.6063656142203394106 -1.5767544059008922197 2.3277831692804835662 1.7724373894439384713 -2.1965090390984909341 -1.1454435876553838991;1.1142911287873784598 2.7424677552753178311 0.41873006884030278263 -0.23204195292370805026 2.5660843811008424709 1.0261138620847718439;0.28109542497721590193 0.42319267683290928694 1.439801259632523811 0.02208863565084787442 -2.9382024765569507707 -1.8761113688169226421;2.2318093641256768755 1.6665463665559998585 0.61811346201537420431 -0.34153587325918138839 1.8658386887004192456 -0.75473216980140289678;0.84529699763455357076 0.70817066765816316654 1.6958079081850281344 0.16965706116606985021 1.9577092493481929036 -2.4522240992065329479;0.8357438081589672052 -1.5345779049683128115 -1.7847617971211933163 -1.1849808795927225802 1.9988462611942678926 -0.66025260376377226113;0.018328038291696317763 -1.6083781629801379154 0.46098267287352778787 -1.5452987423810793377 -2.463802698109214262 0.27008283739245847466;-0.83577936733957924886 -1.3986793861142625683 -1.6241937129470038759 -1.5575424802472390695 -1.3834490928110128038 1.4366089447542804702;0.58960399727659507096 -1.5291240566593853334 -0.81068125803476887015 -2.4020976162915279595 -0.601408673152329043 0.997386691454086316;0.71547537453913234717 -0.60064611457013838969 0.15747329935585471783 0.82276116656964792817 0.27177393930072751838 -1.7564940136619000555;1.9669826938154000295 -1.1208510072451427497 1.2437950894260469958 2.0509297893421036818 -1.275928228172503065 0.039512636153365893188;-0.48905010594167380722 0.99452555296491018666 -0.49292774618512608109 -1.1919891226138874529 -2.1364579640274392602 -1.6993278594046274943;-1.6444953667884620874 0.003310702880063312592 0.19991422173964146225 -1.1533002696607936866 1.0886687200729527891 -2.4498112532645421879;0.29137712864919945721 2.3209666677840314897 0.174227711257798068 0.99869058500850349525 2.250812473003493519 -0.2982549010238393361;-2.2678184147128441772 1.1422156953746738228 -0.082164582316479925495 0.46086470391203099295 -1.0014220618686453523 1.068608479230866104;-1.5709994115421916927 -2.4431571872770345699 2.1675706185036900386 2.0565334609759569062 -0.82631346393301596809 -2.3624967100663547548;1.4273144246606128682 0.72499825550887286862 2.4897223987177574678 -0.58553871965619852524 -0.62145087935315390659 0.81362916753610725618;-0.62906525476157182375 1.4957346822121511121 -1.7388856994598373973 -1.4825815846225036676 -0.072792187896997415097 -1.9360469464029277376;-0.13156477823338855182 0.11945276698019798023 2.1254458249522860669 1.6632227484439245924 0.28208616001623076919 -1.7407696525317211123;-1.5652900291876523653 1.0931979961106919053 1.7968776625653524182 1.1853054174507549057 0.21416727224287229747 -1.616611672352621154;-0.70100471529457242248 1.3117373571333628135 -2.0069687777122258154 1.2517574530594515192 1.9337526664622848305 -0.44842651305050745814;-2.3294559380264834303 2.0513909127841434277 -0.6247449001773835997 1.0396540188882230638 -1.7618685152743576161 1.1914287019381208932;1.1603823562453863261 -0.40514546211528984498 -2.6461276449843165182 -1.7802986340545403632 -1.073491534672041503 -0.0099580126182153855946;1.0032452124054123122 0.83948563528488484575 1.5999322151327495245 -2.0528928263536672105 1.0767695921119790903 1.5630971052603759297;2.0240097191719979008 1.3081659874888080797 0.78664147718001442566 2.0395006583951187373 1.0218915747085781653 0.32259007696468977588;1.4464796488474647163 0.86667975846844225174 0.02156003077346074423 -1.8484027683175434653 -0.40811552860579358715 -1.7740530249363286597;0.206965990867620242 -0.95822957657467688897 -0.77753375969947891022 -0.52477514670869429558 1.9430601993750180601 2.4518077634427468681;-1.8605932240776330566 1.7570842344020440873 -0.28734407048510179905 1.5520759627774467493 -0.85602962709409646802 1.3460346254761923479;-1.4279890106178310116 2.3927010037112181884 0.1845541347418599154 1.3927319195366130167 0.61620139007303553758 -0.28740686613644095271;0.31635645169490217432 2.0969833140501439317 0.54122548147701343701 1.8697725649369603129 -0.29754558663676400343 -1.858554371698587282;1.6665298758688547043 2.0236132921371963178 1.1165504232627569969 0.98314717126631268052 -0.91006329537775765282 1.2962125535173509849;-2.1388947003218481413 1.8573122806578146182 -1.0401308716775068408 1.7986986780156710708 -0.75013390122575906993 -0.13092326985628854885;-1.8616606934354100744 -0.96862208545577876961 0.40041050406262124195 -1.688955983653294135 1.5578326745729238478 -1.0556502354089387641;-1.5339783508055806482 0.21503971664912063799 -1.6122498423544324719 -0.70712064942942154389 2.578430304933461148 0.63438308678143373598;-0.91955621747576898883 0.64229818014559547645 -2.8953843685427123056 0.11205775960680015857 -0.75310525592263244388 2.7342831111614227524;1.8429094976105480086 2.3592107307044059006 -1.9108783979887031812 -0.35844145628371365531 2.2958406476828643328 -0.51692610172045028172;-0.24160439362471400337 0.80838262586023457157 -1.4039598835449191849 -1.3131876681233134452 2.9048610745885046214 -0.28963881688780085399;-0.86436871956965655173 1.7462805883331560253 0.46668291781638482352 -1.2027472882501428764 2.7508832167044863226 -0.014979641795645141922;-0.38346553030091395931 -1.6148122639823823121 1.5821981061605479013 1.7610730559846270449 0.51931680261926493891 -1.7892516259269302115;-0.72374232052756493072 -0.95304998029626952771 1.8640760500598216876 1.5410463645802501276 -2.3128544357928566555 1.6112647244474072039;0.95214797310066945357 -1.0698052044747530243 -1.4727041975128003504 -1.8673519677832270958 0.17436201248672208997 -1.8227201479732222378;0.4547436199295820658 -0.55186442203975627496 0.38952097646182853863 -1.9815842607519109642 -2.6304259467312318677 0.85529651021999331117;0.010415013468547557399 0.53678949825278576835 2.6492631290150852053 1.2062656401218516677 1.340309381506189057 -0.33562360003290742094;0.28108683741057427508 0.4724125316221779447 -2.0822077281485631417 -1.4018842980568668732 -1.9405118636504949947 -0.29019780900813813007;-0.78898915991284779281 -1.5428055279306818193 1.3859021815655532262 0.65389343092529683688 -1.9675700466737966465 1.5861072324634970521;1.6211611490574060479 1.4798839311446403411 -1.5246401054004841136 2.1137758254686414006 -0.57339663823802422549 0.75010947077173040221;-2.0103840045387282309 -0.22548693404736169787 -1.09476021759095965 2.0739900212436661597 -0.50285938509649097394 0.96509129577274899159;-0.35011670960213497894 -0.13680728978648662442 -0.76762716199304326103 0.13832133880475627752 -1.3465627284258012697 2.8574902773157306868;-1.0046719012199205601 -1.2414223008018476779 2.2707433697012926466 -0.3196210060346102444 1.2915038119177784104 -1.397213231933009725;0.20752521993452038851 1.1248970045561956788 -0.82981660933470846597 0.32148138649343177553 1.7436125338201118318 -3.035916740645836942;1.3055134090545654768 0.38575849267661915798 -0.84401557957794737241 -2.0935518728030491076 2.2302148728076618411 -0.86037379560960380864;-0.71437243786772197662 -1.7882275998879069157 -1.8892615271942021504 0.36905335930451588222 -1.5195248304370649883 -0.52462913684787759738;-1.7066130521078344273 -1.1921815925468457475 -1.6223475690315920517 1.7325912978507924667 -0.51729758716314933054 0.88346490120999132678;1.9536723079847242435 0.090584345006070432493 -2.1340363741958090493 0.16265052475313410141 -0.61623092119302758096 -1.7305675592485982861;-0.85114282294354270952 1.1509264692199623337 1.1174172237283217513 1.7729730184229102186 -0.26497392679128134452 -2.4954836131483140171;0.15336107746876484481 -0.95936161946913123266 1.1838400504632959898 -2.0176044581692678115 2.0601381194408858732 -0.87206854873426309371;0.61567761271043752735 -0.11967125469304831786 -2.4539772788779012913 -0.43326626918031341251 -2.3285135806012071669 0.90143155408187181088;-0.18472314371237935626 0.50790486972324566661 -0.0028051365867692371059 2.1189240753383509208 0.28675538046560106187 -2.4821464070163332671;-1.1826003344937308093 1.6591596076604637755 1.257724086754786752 1.0374532823694724293 1.7604571331551503999 1.1005876695059479964;0.30158473164066351702 1.7745313227167855974 0.20068261601441980679 -0.76810004609382664942 -0.81478188077635083086 2.1998274046118777569;0.28199788189669222627 -2.6662496697585611471 0.02433603459806076702 -0.82187699175395467766 0.49210712755265734186 1.6908191643213950073;0.70624826109222738069 0.36823058899655175535 -2.2338141912214046769 1.1211317381806962246 -1.3006390213191221239 0.43385548138629659309;-1.547810716245838325 1.8950953207956198199 -0.71192426154129084814 -1.5558451725297575141 -2.5209583781056110752 1.1782234038743242266;3.0388637096880106725 0.41257794532755304173 0.63571081726608602569 -1.715855553601553396 -1.5809512119110107342 1.0477608768029111896;-2.3456816840602772167 0.45918027698480101684 1.5085167971876503046 -0.18597587269524826215 -1.0227006315102218359 -1.5211543692998377164;0.21645734431217095173 3.4950014264717554902 -2.1414079209816487825 -0.78726587561945049476 3.0325371651113219862 -3.0075960749728944954;1.8703238043861765139 1.2822540153989725464 2.0958512683348864414 -1.1879958889993353921 0.067068454835339588738 0.35552031106370235447;-1.0692542644007614339 1.8124736569444863665 1.7063623391641407068 0.15294403451111107661 0.33800296139049818001 1.5320420236649907597;1.6132299497589792647 -1.5518815358443753816 -0.5803861597807322692 -1.2526546710937151996 1.4172710092831326545 1.8125861617844916118;-0.41725783004865452108 0.45210529625404416443 1.2684440883152956481 0.67374438572629113953 1.8902915727492641818 -2.2764969353211137459;-1.281872126515959831 -0.14629959761263769402 -2.0007491557404333271 1.1303851816093917204 1.3296708585815586456 0.58116234358463980669;1.4084251825194771257 0.5803269487851649977 -1.9487733555062338731 -1.9253675457709624741 0.052158722787818169453 -1.0685557137553844953;0.0075860509347308443737 1.4979575022068984946 -2.0230453762435161025 -0.41508446837665341489 -0.92536053023877984369 -1.9054067316330267623;0.44982865221850365511 -1.248746707812989909 -2.0208294846931380562 1.9948217617691799131 -1.3040410617937947535 -0.17034045109836332133;-1.992513215496896084 1.5442961285238301361 -1.6249159468093949954 1.4022912684273467487 -0.040568775923509887982 -0.46180452780236191934;-0.057034598174605322107 -2.3827746796924098582 1.6560705489444267346 1.5325162657382944698 -0.49363531336632576751 -0.1010656356783880272;1.7551823430685224992 -1.2876200087155180718 -1.7691099309205302603 0.17210843957081256583 1.2680741537787854067 -1.1238699945268597613;2.5588335056280717694 -1.5447485704054035871 1.9479246654860911114 -0.2707185856000233759 0.88847349921079976642 -1.945187755519622419;0.75566469084035658987 -0.607448364214312031 -2.0829222647678808933 -1.8318748428574860299 1.4663666743231522638 -0.80976962944330854732;0.76912474563328281363 -2.7135129440267720113 1.4947811949259302011 -1.1833118813761145383 -0.93062095962082391765 0.41942263012729880112;1.7310544085101897682 0.064839435318681151732 -2.4935411139629226618 -0.94835324108982732572 -0.80224435794842474667 -0.53052486130233555972;-0.47434342193106332486 -1.385354734441757385 1.8929981438425909079 -2.0500855705557525788 0.90846807983838495648 0.88422422949286449967;2.4466466537084650135 -0.91286240987689315496 1.8739259883902303905 -1.1677880834815963507 0.27753459906551641856 0.031196230829540469442;-2.621000763384877974 -3.0291088618184889292 1.469769301022645358 1.5080498386637313235 0.44078982134307098661 -1.5900444493838323812;-0.46539368849032736186 1.5908628746404629428 1.1585326808816391875 0.50336657500237635965 2.6709088019370401668 -0.76624940581011380392;0.50017700972357681533 1.0817213987068043934 0.58577027291751004867 2.2336156646086795519 2.0061045249685460767 -3.0528052359964532592;-1.3998710276094885607 1.6798356451269704781 1.6911121311475147966 -1.138117211704863907 -0.049380465500546456836 -1.7953869604009597971;-1.2570626078597118003 -0.3666130283538430179 -2.5376017618859760816 -1.2342363044325301846 0.44228202567187896443 0.63838256289957973078;0.2180438036052061157 -1.0341157049228020259 -0.60181724800026303868 -0.89298437084394266527 2.1946469119275424653 -1.9448573446698018685;1.2526009054228113282 -2.0970595478644056264 1.9369775003093496757 1.4241380459708354866 -0.73783452449263053907 -0.86011372644775407892;1.5024436651931531994 0.47632205914234088118 -1.5639794806485129985 -1.68974752726580979 -1.6964694672268960662 0.48515676523099865447;1.1597576591814064972 -1.2031934120786438314 0.38575519150314580008 0.96819250060930861501 1.0998417221473115735 -1.7016686243977714454;-1.4690715918253345329 1.8998887807894118129 -0.2744267416172613272 -1.0041048282403215453 -1.1742285884331322698 1.6503101612078503457;2.0308214502551376057 -0.16779725522098798418 1.498212249374913041 2.3112163391728715034 0.91768642801832656097 -0.74791023102346565476;0.75679531108389219707 0.12469659892379039712 1.8828796785201813435 1.8596305896337672614 1.9748155732432344234 -0.62756155950912106967;2.1599696997821582478 1.3131353711799629291 1.0763516926546106145 1.3510837037896596957 1.5904082887887762698 -1.6683699090574333201;-1.3439071977594791996 -1.6982444707466117784 -1.5344545446710724512 0.16764012801150782184 -0.57111715612656321905 -2.2827899270035887369;-1.6777923277567243776 -0.29507681684072117889 -0.6761316898022203814 1.9056434073155199549 1.5688478770105636073 -0.75794246735738546317;1.9107910206148026599 0.4664824962138683917 -2.2442408435794360955 0.80219733527492942393 0.0044390547281738601884 1.3956114883335779542;-0.76800732589745179801 0.80060580181492058127 1.6009697065623802459 0.16718468342594086651 -1.9437497601195836694 -2.2432109158122122139;-1.0637243917935261805 0.7863317241662911572 -1.5502209132318995888 -0.11420778909343920482 -0.03340654161373997344 -2.8800490532785634201;0.022696808728112041753 -2.2404787002505668347 0.25051901749729604818 1.2566356899490269683 -1.9501019883848125236 1.1884843519718168992;-1.3523636121121589415 1.457926174663047636 0.33089836585481036124 -1.3262085762500817054 -1.8926467088336107469 -2.2117967480058626784;-0.31127252061399118821 -1.6251963410799239451 -0.59724020939025812549 2.1411028504504585612 1.6991631087114325016 -0.7606824153750941786;-2.5112903663794172715 -1.2296111139208847352 -1.2325500817078141047 0.50497706900953487352 -0.59384528779600120885 1.3232295370356590425;-0.86066415499419102186 0.80760197984282022787 -0.9360662352571085254 -2.8845687015878369586 1.7917074770402907635 -1.2082367992570635096;1.2774481656110885375 3.0045727083411195579 -2.0295213280552406587 0.17827656402778707667 2.6802124833187206399 -1.9791941722457779829;1.9691719082142304931 -1.5383748063194648825 1.6310727815706520527 1.7877504490054720865 -2.1444532394371025319 -0.92401534326817424958;2.7819999494965830245 1.4193376491941362971 0.8198865647760474884 -1.4714019410861554071 -1.7981928844359529318 1.6918483343569692412;-0.98963844542466661292 -1.8497998746463752973 -2.1890055864083488579 -0.34787797435784295619 -0.97936652856482186991 2.3894033040701199155;-0.059774989477577956942 -1.9705550852477129453 -0.74753145651726449206 -1.9597459179154164133 -0.75175419066665860601 -1.0188551245983166194;1.0657131825204695375 1.1018645925507852823 -1.4270578777012135063 -0.88192016062064315651 -2.1537266308211675536 1.2872721905527513275];

% Layer 2
b2 = 0.43149927016692501969;
LW2_1 = [0.33419842525399173772 -0.05170456595697547203 -0.49422049001532453172 -0.089409791179473008249 0.74350043096699569567 -1.0122085777519889138 0.8713667216667475568 -1.6581942696211018351 0.43147068187277509699 1.2003814092243243472 -0.40482388211641651132 -0.71918600318459358078 1.0617351495705180664 1.4370656485561030813 -0.38802369864946645306 -1.0485232443339469466 -0.15486703839812110406 0.70386986141983409748 0.38315196780923710396 -1.2070370541536989961 0.19869227884265516781 0.5862912691536300569 0.42251367230747305381 -0.53419795880152198819 0.41193402162108028186 -0.62883873859335059908 -0.41859542929592286065 -0.8184266477943470397 0.28140726557771800209 -1.8574927645087566663 -0.37527270921472755116 -0.75131413610760655608 -0.060628498045659139082 -0.69109722040262921983 -0.5179513733406047038 0.34595339039411732163 1.3155093271914954922 0.10737089965911797429 -1.2905777178810613481 -0.86766904071223416306 0.34047684215156792664 0.65570299263278919444 -0.53026772828432400253 -0.75400776339498132295 1.1805998710185183764 0.79551528331773013747 0.62275029417317295799 -0.80070199211955939145 0.89191388010564198741 -0.42071127264961344361 -0.64102976450211901494 -0.23718523717745312873 -0.37839850077831210795 0.29325001519958437957 0.68907621288363796186 -0.53113806254555184783 -0.17999385067462880805 0.5018014181655185979 0.99243145050034664578 0.17035749701261335143 -1.4565899480503601282 -0.24409195433825958688 -0.2461142979486351523 0.63117147183873412164 0.10131576294791584669 -0.49775064499574173116 -0.45043996780745815256 0.47755878940338242211 1.2437646897285643544 0.59892314270640012452 -0.50122062990052451692 -0.60938742667725420699 -0.68683967561280390157 -0.044541609197924138253 -0.62278150431183276758 0.77948398943446595144 -1.691945148895261708 -0.20476075525795889298 -1.1827022735913930163 -0.71912669210931423613 0.035988032538157299633 -0.04966530545455818263 1.6315482151607965111 -0.47482557160506649874 -0.5484992241802970625 -0.66770633528896150555 0.27514900870840131031 -1.1974272491521400497 2.0535080827016742866 0.050711333095638015667 -0.28539450352873063643 0.17550930714362700247 0.2713849257328187492 0.24522563331277838494 0.13337095154793235374 -0.1255498266153764475 -0.12318088390255843567 -0.092849521091458372957 0.10672141684564474817 0.76553187738235195514 -0.68299650372065712212 -0.29447863102567001237 -0.33551119448069144369 -1.5376305814223409918 -0.69706713005191001109 0.11264721254024524788 0.27842702396687724065 -0.12653010845254289429 0.69764635838744148977 -2.1185786096836167758 -0.31979286775614967908 -1.4439327835039643677 0.021731265402574091727 -0.10958544766340423682 0.57291001589735723876 -0.74867364511170408914 0.68504732254248046353 1.1073387845404130125 0.21247896680608713282 -0.90981120586977759501 0.26342774675328095579 -1.8100602345923466618 1.77795084308862128 1.9166709275849298511 1.2544299079419496401 -2.1195476317330950167 -0.70228243862275929743 1.4431066096399791654 -0.48338083235494722079 1.2179089746784816928 0.012919774267162583911 0.4456495050900374788 2.8560783935540681178 0.20963969303064175498 -0.064460556031498292273 -0.17047943887891001125 -1.3471471790991158546 -0.89645952859329869344 -0.95893464288133711815 -0.0036543436632191705557 -0.49550046243309348037 0.71039892038254404127 0.80212433294261187289 0.077002955382899876402 0.70840960365366090201 0.54582770359190080356 0.24677968090392937706 1.3201328781998402651 -0.37649970336015481376 0.16245554001547549139 2.0983842452372472032 2.0616374879225065619 -1.9206880957146219568 -3.6843168597410516085 -0.60008152792337088322 0.48198756341602472242 -0.80182697551238890643 -0.67949156667139798405 -0.35088614655959166067 -0.61167945225845954393 0.35659854389883677284 -0.31869115779247519926 -0.33274060481126621625 -0.026369890166700809403 -0.18037586594354426683 2.0533672091296137907 0.99190340928999709558 -1.1140040022159638511 -0.59907656294365208005 -0.27146773333504725656 1.403911393765180371 2.096669460683738162 -0.35528921717232020416 -1.7329516713172354869 0.91236880468500314301 -0.93273389519824245752 0.24814033270041077617 -0.70351915651135732421 -0.71718632761981548907 -0.076969870831864350968 -0.61396197308940958504 -0.0010275175543665473858 0.1461512476385830317 0.71325217251239558802 0.53798467799022897662 -0.035303340820751774598 0.10125918555721143133 0.56284604527583981248 -1.2745525268607240665 -0.87992078334228873704 0.16556826356899881358 0.70207408386502445641 -1.265035731171375577 1.4283954811031496224 -3.0725845925030124128 -1.5555945907935571082 2.0063739363310237884 0.98607480853008444566 -0.26271589043529064433 0.0038633875065428161834];

% Output 1
y1_step1.ymin = -1;
y1_step1.gain = 0.1;
y1_step1.xoffset = 10;

% ===== SIMULATION ========

% Dimensions
Q = size(x1,1); % samples

% Input 1
x1 = x1';
xp1 = mapminmax_apply(x1,x1_step1);

% Layer 1
a1 = tansig_apply(repmat(b1,1,Q) + IW1_1*xp1);

% Layer 2
a2 = repmat(b2,1,Q) + LW2_1*a1;

% Output 1
y1 = mapminmax_reverse(a2,y1_step1);
y1 = y1';
end

% ===== MODULE FUNCTIONS ========

% Map Minimum and Maximum Input Processing Function
function y = mapminmax_apply(x,settings)
y = bsxfun(@minus,x,settings.xoffset);
y = bsxfun(@times,y,settings.gain);
y = bsxfun(@plus,y,settings.ymin);
end

% Sigmoid Symmetric Transfer Function
function a = tansig_apply(n,~)
a = 2 ./ (1 + exp(-2*n)) - 1;
end

% Map Minimum and Maximum Output Reverse-Processing Function
function x = mapminmax_reverse(y,settings)
x = bsxfun(@minus,y,settings.ymin);
x = bsxfun(@rdivide,x,settings.gain);
x = bsxfun(@plus,x,settings.xoffset);
end
