function [y1] = BNeuralNetwork(x1)
%MYNEURALNETWORKFUNCTION neural network simulation function.
%
% Auto-generated by MATLAB, 16-Dec-2020 22:46:53.
%
% [y1] = myNeuralNetworkFunction(x1) takes these arguments:
%   x = Qx6 matrix, input #1
% and returns:
%   y = Qx1 matrix, output #1
% where Q is the number of samples.

%#ok<*RPMT0>

% ===== NEURAL NETWORK CONSTANTS =====

% Input 1
x1_step1.xoffset = [0.12641;0.28226;0.23837;0.29182;0.56556;0.84557];
x1_step1.gain = [0.588237024226542;0.37829065584251;0.468501474608391;0.450026776593207;0.350757812253373;0.327068339294154];
x1_step1.ymin = -1;

% Layer 1
b1 = [-3.3268383914741472829;3.3158028143586348868;-3.3097964764857268349;-3.2429286757394524265;-3.2669508142811984897;3.2434970091037618189;-2.9510777844230227096;3.1916889453959740308;-3.2063771124468969376;-3.0854464871835651785;3.0011406134184643868;-2.9888290469830942619;-2.9983169901611121944;-2.9502388179537351043;2.9108113426928037271;3.0662697115138999315;-2.9766369397203207292;-2.8288481733786139394;2.889185137411059312;2.7002494070665923331;-2.7833104419270227048;-2.6577115012993570708;2.6048759041910005685;-2.6828861944591544386;2.5453613471008038616;2.4895877142987887787;-2.5451670883371653176;-2.5201099210462927225;2.42581922186928578;2.34812937799576682;2.4021401062214127187;2.387919524490022205;-2.2624423904078390102;2.3290672011065995939;2.1743978333616769127;-2.2022593931231129183;-2.1430198629619505724;2.157228613868665601;2.1680888305533749794;-2.0699144097145789623;-2.0290725265930715793;1.9993113803634834369;-1.8495282992780659459;-1.9975732272320039229;-1.8756216560619973777;-1.9894467174759933314;1.7554627100738093848;-1.6366294304760498068;1.7348366553905063547;1.472916834176995815;-1.6475828014457016835;1.5945745078368238623;-1.8687878792813661377;-1.5443535238915466756;1.4206429407140346299;-1.5132121156058708777;-1.7170892579934653455;-1.3574324936559256649;-0.75735856045017779792;1.4408258664574922214;1.3010383270130507771;1.3816136304636257304;-1.1243314705916294116;-1.2480211549143449545;0.9723578270620800712;-1.1193283472289723424;1.1160846891305160611;1.248004488011163593;-1.1077001961681698372;1.1375943440906906012;0.91460411718203793452;1.2526808357886385359;0.86937783908950316825;0.87193707482925308927;-0.93210852802940080686;-0.80632798628037138933;-0.75957897551777286971;-0.76210623578866854011;-0.74656536408347151657;-0.69976932186073859121;-0.58934653070698417299;-0.64174081751790390538;-0.32510090666257840386;-0.9024315696268458975;-0.45552562606250690536;-0.45579519174134192072;0.47938940718245054429;0.39669340349614939933;-0.15460235242412048717;-0.82886925524425980605;-0.27629091026228091987;0.072025453066739464347;0.34502254860488468236;-0.2571027048263685999;-0.075468473849254077979;-0.092997021445309469012;0.037157357614683972358;0.20127632768783845774;0.041772520484771182014;-0.086876032701102057221;-0.31116687711361840085;-0.077281696822434853278;-0.25465482038240083718;-0.77252001659779268028;-0.1254731534437341367;0.37820530268096447246;0.091077290704046118264;-0.31684322127601249885;0.36580116274414992139;-0.3585200413125867458;0.39181383152101439959;0.49426060004874050602;0.47627783183347982554;-0.57387288808614578262;-0.52855133950735500026;-0.62339571932589032954;0.52933834517427158506;-0.012592024173883720195;0.86556992845200941833;0.80070769137104946811;-1.4095081659137123076;-1.0092051964377681816;0.95403348861565273609;-0.64061946256957791324;-1.5877999151041357617;-1.3057364330283600662;0.82753552045036060658;1.0363991726308552366;0.95947461396699684766;-1.1908215736805640717;1.0083980650443917781;1.0643607618865513764;1.1953097261757363867;-1.1608285467209924491;-1.2094805606319727342;1.2170439488698172603;-1.3599569056643603382;-1.5317474312338565934;-1.5036930297990607208;1.0254966204754876191;1.5119336243714447399;-1.6485890114594323741;-1.481330955014556805;-1.468851352344730854;1.517848614266337659;1.8196512955117474242;-1.5057224185165209995;-1.4515250423845851291;2.0480008529616937629;-1.7780084249708059119;-1.7440245022880431769;-1.78582589265288183;1.6127362764152821661;-2.0264369408113758197;1.8846561834273600766;1.872029816821236814;-2.1585226932398864363;-1.9311323043193280302;2.425481220432982532;-2.3545520878317214297;2.0281477113020272007;-2.1601161784229372387;-2.0535337604770882436;2.2076889576728748743;2.1246316857305296288;-2.462218855638021342;-2.3451803748961164153;-2.4170156971720100358;-2.361279119415188088;-2.3625906072307767403;2.3961999828202649176;2.5452327251258055618;2.5560595804975587697;2.2574341613171116094;-2.7154175966680846876;2.5635419434671122829;-2.7283223087028098952;-2.6110855818682066065;2.8084323757944225086;-2.8039034604116852556;-2.9639579352170124515;-2.6600163827944691697;2.8636980165508560958;-3.0309736815017971345;-2.7041417190569214668;-2.9770758395492866732;-3.1624870314642641311;-2.9766273935923668326;-3.1259650288099298798;-2.8797409569170691057;-2.991778861561752656;-3.1278503986884871324;-3.1459935074452052284;-3.1712105095791938147;-3.2176245194757298052;-3.3866363236049914498;3.1783338208083118381;3.2755552841279915732;3.3412658826470424955;-3.1882985310108828969];
IW1_1 = [1.4276408268364919607 0.95278167996445828347 2.284328555959465934 0.68742326002213394176 1.1990776046674953559 1.3604126606369402186;-1.1300836877378355183 -1.9557188211891713969 -0.41362414230487620781 0.17300829333784020769 -1.8592575133128199649 1.7776725455052322378;2.0716294311994940536 -0.42538430445642771982 2.3207302680118035987 -1.1539910671100976902 -0.53363583758028887427 -0.19187024803840838083;1.9355288997559021436 -0.34182982497280500755 -1.2873488009203357674 -1.7600567396856736657 0.41067145748311278952 -1.9698016130976581106;1.7945476403053992609 -0.7976432431089024444 1.3548644585818248043 -0.96968127355299471581 1.5380548199099977058 1.4907798042894440105;-1.9494813122054013288 1.6045634176374083957 -1.6405691912470794502 -1.1165691315053374311 -0.50406823085139484952 -0.83673720654630401317;1.2412567395082940713 1.2775224588922302615 1.4920945379962884392 1.5504547839495386174 1.6738201333695910122 -1.3509095164133377853;-0.61785477506523422964 0.43199720240712147223 2.0298193433865869828 2.5409959333601861431 0.75345181706244224173 -0.99014544769617718334;2.059328112323813631 1.6650285802844999594 0.77284868366073899981 -0.64166457635533968862 -0.24272016442177646312 -1.6527846289061027818;0.76394667330412058259 2.1386818273936070156 -0.33269559993659747477 0.15655569498995333677 -2.3088769759120850722 -0.90685849022769526862;-0.80731096674540814284 2.01619863357905027 -0.39967440344534477248 1.9602243039119902068 -1.6907701044499792165 0.044778035573176971917;0.75291114747126153262 -1.5478056924422711749 -1.3090284788541513006 0.97876526621425030683 -2.1017503568097404276 1.2760424747051022365;1.8382375180603078846 1.934746601189200943 -0.58239842444886236184 -0.22870316166818163706 1.6996072018076646692 -0.98116838233381431511;1.9356257843943394104 1.2080565919479571146 -0.30192282815246868077 -1.2545087074914613723 -0.60780924932197410993 2.0479921266687930448;-1.7067708248474102728 1.5020504071146589808 0.47554554025274803353 -1.9465029568726504028 1.4890011400204405945 0.24234359120526727249;-1.3166620800981889694 2.0068296265458349659 -0.31379004188160303235 -1.470698301911508965 -1.0402556132104177067 -1.0654067334985921622;1.3309097934473490543 -1.016848065816077229 -1.8653992538844577087 0.36674426518782904383 -1.3527341817000129165 -1.6280397215081898743;1.1640337395286415312 -1.5445927746782501799 -1.4362021147688097678 1.7290853806861985476 -0.31986859672943229738 1.5816715500900158098;-0.41072489860956579166 1.5551449657847167263 -1.32468033060036805 0.24643296429760314092 -1.4484098616565772577 -2.1388139715253560169;-2.1348210660214665957 0.66410845670265916674 -1.992135337426577113 -0.20815511412836590344 1.0682792879245235351 1.207686712147556074;1.5926741301955087415 1.773752671602212283 -0.18832427724946962377 -0.23737639735377769057 -1.1190041386623126307 1.9903423353564655418;0.90653998994862239336 -2.3409455717533735886 2.1498268065276064931 -0.31905490966454841395 0.17184008012781212815 0.66800800628874157372;-1.943939538099043407 -0.86369969705914484415 0.066211518930123475224 -1.9693570029442106772 -0.81528738159780400618 1.6143485224725500071;0.12838690792802084917 -1.907795105175398076 1.5329133818235698428 1.7944329298595333988 0.31663200355783582829 1.2952844894007646825;-2.2840182928764325432 -0.37753916136445236917 -1.3555619869276305245 -1.1439384544431538959 -1.6847349640641002821 -0.39869433154824640564;-1.8992155795741647584 -1.8405970554943773543 -1.158334633690642379 -0.99608871910421670215 -1.3227620257468548637 -0.63961633920515881258;1.514020617115888756 0.84723306736540393569 -1.0377995887353728133 1.6055277699056671459 1.7214039160439964515 1.2494365518122714231;1.7804475472427490068 0.50262794149511558217 -1.7226020026258344053 -1.7361363908772511344 1.3884067730696780796 0.00069942072204161407495;-1.8406655291790161577 1.9258565822797562017 -1.0078027659240742508 1.5604052565321255841 -0.027861214631277393672 -0.95666760210334400583;-1.7423568442301367032 0.87495051557607905757 0.042631381693367560726 1.9111041695686701303 0.71936353823771725935 1.8985328694178580378;-0.50817604451921560837 -1.8117903149304712684 1.1671093543164205997 0.87760389004474770314 -1.9029901986592203667 1.4236799655572269785;-2.3734081218874965025 -1.7005664715604360548 -0.76563263096147216036 0.46839439236310459469 -0.93307312053304580779 1.0616694214215978143;0.59060033123578881131 -1.7303217812895286265 -1.2585921409799085691 0.81698739921713381396 1.7053040653222897305 1.7360355488884524622;-0.81702217524793752101 -2.1806503713515965615 0.62471650264570166566 -0.2394610194421535887 0.57279290924446313316 2.2314393930386846598;-0.095306422771825230478 -1.1930178042775443359 2.0872222257894437192 -0.44914375477369689049 -2.2788758745415607088 0.69932365419490738478;0.26809845756206268641 0.75499680968670390691 -2.0307076236922947388 -2.0385212974793094354 -0.65991932316324564134 -1.5609361975388758026;0.91288513974129947837 0.20984665918277201069 0.92637653417672793932 0.55560140125164703129 1.2131278382672718852 2.8310628248991691613;-1.5314471222263714711 0.95526853289029867167 -1.6401248464337065958 1.5429972954440291932 1.5423971023052227558 -0.85347442987728772135;-0.52489776787686903692 -1.7208804486373270315 1.1426055856861574433 2.0217073124541178331 -0.86859129341384910816 1.6327924670951228237;1.5101435082775052088 1.5797091340179638674 0.91045280750368651201 0.74676875027016165198 -1.9776374250888510975 -1.2118766179345938916;0.4716048575468676507 1.2290367237606438788 -1.9411179493791701489 1.1336067633232662644 1.5510885862177830052 -1.5224164529640404897;-2.0035491453026019748 1.1574815702363461245 1.4315038999580433909 -0.90248596976611694664 0.22237777316040172049 1.7787294927749093265;0.38128885422714042797 -1.7203739453850370733 1.3058810616370830626 -1.9099545109700695189 1.8103518493274515233 0.25463170047725336431;1.6428411799410045369 0.97957594979795981072 2.1852366021354838743 0.96454259389979424277 1.2257315909649109109 -0.52715645663979748825;2.0740397438884858872 1.2905699412043358798 -2.1619436674020438005 0.76046947976831436034 -0.20412552325405655673 -0.13156886928753921961;1.7930887182136525659 1.8646440003831792342 -0.45053888003974656984 -1.7971512452575786334 0.43901079588131580733 -0.53158577985359622975;-2.0919422734824109078 -0.19643375310115882004 1.2406342867910076233 -1.0667154030894789862 -1.4532976814259941367 -1.6775189039891893472;1.8815339786559341917 1.6599974872260985226 -0.79404665336790847263 1.4116712803381707975 -0.43995314096512744273 1.7050702189974109579;-1.4086418572105383618 0.61307499279829225092 -2.2129077451276142341 -1.8900068347800937918 0.55127736511098290872 -0.65312654884476140094;-0.39013312058381410807 -2.0178577505519532664 -1.0240592420689345055 0.35919532956858563066 2.5381556814041950076 0.11971225601374806125;1.3807106584584296627 1.59052106244509317 0.45782878627115708436 -1.3269635212184800466 0.99871882678701684455 1.9911485614961621504;-0.66273463639271279479 -0.016048790516979910548 -0.34838932584112058954 -0.24518503413998510299 1.1423253563885633621 2.9471237809281709552;1.4062423295311625715 -0.91865444167204057813 1.7168722656370620783 -1.5595272198385552453 -1.4258723471172052299 0.95832244514475339869;0.26179714827082478656 -1.1609466044363396797 1.9531444249959519777 -0.5858156302530297399 -0.12467672090078921188 2.3761753829571490293;-1.6969881962212935989 -0.76997332161259146588 2.2789611895403707464 -1.6658754429750051163 -0.65321354474596193818 -0.33940273622629918426;1.4518239915042110422 1.3423608052821345282 -1.0263484363795150056 1.892398994703803794 -1.4087770025964934106 0.97982706486454251849;1.6605497453159836496 1.5108130547821112533 0.02153342289525434633 1.7532533676608701434 -0.18926761439141798204 -1.621777573030426467;1.4319614816942467517 0.44461087604473908952 -2.0498489081594950534 -2.3081397065766120491 2.1346940787005763696 0.21453999465937920177;0.16925353456800545926 1.3328589852173733377 -1.614035852934873061 -1.1447209352610347999 -2.0087767332534847142 1.7541685131995705671;-1.5892112405731873004 1.5258013837903556809 0.7519953725289481028 1.1002458043873151183 -1.7658935016852088662 -1.3811488474853157449;-1.4491583220766024453 -0.86781018589739500335 0.17008946658138535124 2.0212698202028627215 1.8549052091667643793 1.0295225719839244949;-1.9479239921873134911 -0.67139243708118911957 -1.2539291442422075828 -0.51293142913005662642 -0.49662848551760313542 -2.0856885327316505574;2.1688906507815599589 -1.5434448670286429195 -0.066330622833020935758 -0.0093762621954543226566 -2.209198037357717137 0.53094118075765017739;2.0757584991667470398 2.1266477554667155836 1.0297155407584381859 0.40604091417913118489 0.42588235200755053533 1.0880545592026102941;-1.5564543645656581106 1.7489602735773455144 1.018007274661497652 0.8947872599628942103 1.3446338856061426092 -2.4799961695717311905;0.86335584726797209854 1.6117580782365643621 -1.4465127530077801499 1.2393828924105501077 -1.1680963453201165247 1.8816242244625704938;-1.7964151796697944707 -0.93737870422922564551 0.034261667798034932397 0.27455100038607693769 1.0103016512416791439 2.389227442881153074;-2.0899242278957910202 0.47876534349458710338 2.1835077190441265493 0.53894265293444321152 -1.1686427326507780045 0.54643516749487230921;1.4523135774572770718 -1.4443125071160343165 -1.7904862318337917415 -1.4432795560494193765 -0.98361814725738427878 -0.89470876626935269549;-0.7804247535317805351 -2.481021043935605519 -0.96014998469782930623 -1.5245559790199607608 -0.041044300761915189502 -1.4320077473862642403;-0.50546017041589719199 0.9919416708327631893 -1.3542005456831625043 0.62941712798832749609 1.8045517660909089486 -2.1401704644209749162;-0.27176694607403500958 0.35107655437541435139 -0.6323949922373218735 -0.72523064791252456196 -2.2932053057851375932 2.286207185543674747;-2.2285762241938535944 -0.62879567155618132368 1.4612806770263366829 -1.5371344229993508801 -1.1658422607898215606 0.62930603051837441519;-0.53511430472102550215 -2.7532178495076671254 0.095325688008033274135 -0.49615970399046493977 -1.5732661500756142114 0.75893596718200118101;1.8957642449891214387 -0.75852069739197736098 -1.8900489700305083129 0.19754933994105955408 1.1767616324513574533 1.5051293376722769679;0.7514924165163554548 1.3124102300958158107 1.0271680435777825746 2.2659182604466847621 -1.7746895290336461848 -0.031825348375402934264;0.79942551000403272443 0.90504582466345595559 1.902827795689344903 -1.9464984287512834271 1.4343244131324544011 -0.66710283190597363667;1.3103210169185246503 1.6300636655639122452 1.9849935097872084544 -1.4147970604359196845 1.0371444133624521111 -0.24055135230669566493;0.9856170683457451398 0.48974629378803169466 -1.9981678244792293597 1.1628348601754752156 -1.5666416352291687719 -1.5641023337882353772;1.1992566233531871678 -1.5672768084524208998 -2.1972383964577772986 1.3005157056772014279 -0.61928826567548778126 -0.80558003936301336712;0.24210541019307088573 -0.30009640970762258005 1.4582595403528597622 2.3370522660397372583 1.7716490711015546733 -0.71730712341513613861;1.867648854043145068 1.4018612368832927828 -0.86643220145018107203 -0.18076425122074094021 2.2776300545454684077 0.22070671393694024642;0.42917664632969815264 -0.3150947798426114721 -1.0734207725975133396 -2.8579306803575250662 1.3727371882919217061 -0.96217380990293088772;1.8419740958702250921 -0.79515872086348216019 -0.23926646404534912538 -0.03482361478466603627 -1.3864546784672076019 -2.2815620069208528697;1.6835558169256736871 -0.50924719471373247615 -1.8117096282042255417 0.8113771810847102417 1.9838312224393295224 -0.45588472303629606897;1.6681807137826420995 0.95634254758965642207 1.3142238593022859128 -1.4928197199706148002 -1.6553473730949921361 -0.92209101210547961269;-1.590680501796557067 -2.0605575860518592357 0.78960757845444229375 -1.9080634694659270867 -0.44462340533791483432 0.42288280196774141739;-1.0476776151783084856 1.1127846309998015162 1.4388194391357533863 1.8834669574553357663 1.7453382930472869372 0.76757906416104515479;1.4784434592354354088 -2.2351164187002101613 1.5647648080190164066 -0.35667108884479165054 1.1607724290817207358 -1.591736942297758306;0.99840658033401774585 -2.9817574437990024272 -0.39410630117682804441 -0.71818692225853986155 0.99622096256057368624 -0.15452946653502200314;1.5714843599359444859 -1.6083366173145332567 -1.9376394250185680068 0.24769855571361235058 -1.4338097716302031781 -0.49202921711824632034;1.4113042462405351873 2.1453965000734980251 0.68506552333812265054 -1.6966324793721865305 -0.60743590002150482654 -1.4345734281362374496;-0.16532080029967805013 1.7534109316152730607 1.4284700977755062645 1.8418224748220011211 -0.0091287803026914859927 1.5512709025935951246;0.04393493604475644243 1.8102684128014132625 -1.4866186648883457089 2.4101950657140776002 -0.28957262305695147253 0.49337564060075550509;-1.8348829980152372432 2.1637117628516877588 -0.028392548052947712278 1.4027606969418084937 0.073435059239611258364 -0.34572140485377905739;1.5397511440567228647 -0.12094214822124448039 -0.21251847252996824977 -2.1290448649408308945 -2.0822149762319615007 -0.32051825050355947644;-0.88727916726215860788 -1.9277017040138499926 -0.69058207511564018155 -2.1807395526277786324 1.1778016862173359414 -0.45136300108551113963;0.72780223312293235161 2.2727568418002705997 0.6942764384869162253 -0.94109727982323621021 -2.0356873777758983657 0.71998856285844636815;-1.5029943680004111961 0.76701048865046383973 0.89833904593067248623 -2.1356610832569642433 -0.9142112099429998695 -1.5509330073798441862;1.3579130173450557617 -0.35090987796059935899 1.4881833670564332817 1.4057883051324928658 2.2450352620819118421 -0.60767380244462498862;-1.516639766264697764 1.922206386369172737 0.4026666994475835426 -1.4104386055246826981 1.4928979416367076372 -1.2069544248307140233;0.27435467447014511011 1.2356947849969170949 1.1220584359922027851 -1.8701166385205363341 -2.067514305643013639 -0.89135248919910525789;-1.3581591673251214303 -0.37285104176340155835 1.8612310272437477821 2.4327888179055716655 0.80670121010921047588 -0.34374416379000710675;-1.6132266657587142067 -0.44377284801496663658 1.7336761714102275622 -0.89559892350222369828 2.0492767208378777077 -1.4950884366324208585;-0.30805453153490730545 -2.3734739190072766668 -1.1147914106479281937 0.088410802100248472857 -1.148638725402640226 -1.778607387506598414;0.91533535940457877444 0.29102947547059954125 1.0714996740169409062 -1.8273546220280159069 1.4378280180990650194 -1.9002048754633189542;0.03862745370319557725 -2.7559599076162988318 1.9361055165419751578 0.68160940949403359124 -0.67796162937575887852 -0.072705780909971234882;-1.9407813783968925758 -0.53477911562075952645 -0.25341027057315335114 -0.60936911107870228577 1.1136149172351266223 -2.3800245866694003105;0.92937143477398920233 -1.3873587482394971193 1.4881874183324343974 -2.1483226999707634164 -0.60487868270197775455 1.1514467970182660217;-1.8027476424493880103 2.1839307637229525838 0.11457778253870178065 -2.431178107741768013 -0.1253856655312597379 1.28472961494272786;1.1604454733279294665 2.298759913088128215 0.32154375102451804302 1.00275485471509751 1.8496263137624919803 -0.37543655480793591828;1.2449478353490563975 0.27456375019814921457 -2.7344951386270497373 0.559438898486792624 -1.3525044320618719862 0.44748878464029917534;0.14145566704194492691 -1.3511905045122267754 -1.1785240240936927236 -1.5667552003177322995 -1.786895508544766864 -1.5507711314476664288;-2.1902698481481275294 2.3175641603047720807 -0.41968454378076414102 0.62944353167406474903 -0.47354132417649158482 -0.79479378713281623181;-1.3122146371337435333 2.4191442563163381152 1.0438130722209661982 -1.0606483528965022778 -0.080325469175715508152 -1.1012747606204638107;-1.6790862385676608159 1.5333851237563431713 0.91771987835186796811 1.4777081431371379416 0.90165450168869742953 1.4808952294963797502;0.005205159608016264941 -0.99211074375155772209 1.9811187231308187151 -2.0765352959690179802 -1.5130187941530646167 0.32869846141039121834;-1.982958262575569508 0.68009514408800153529 0.34673921513694727636 1.2499677128455326525 1.6311451496463931221 -2.0674784505721173211;1.8400334261367521371 -2.2094666401858540361 -0.24230366532212727071 1.3778608612424745328 -0.64441137706448448075 0.9126231375637872123;1.1477194146682008213 1.0823185287738834592 -2.2139938446110116743 -0.83865440161503590488 0.81834654345131196962 2.252387942727350989;-2.4538504347537131167 0.90329670844213627579 1.3673396644370714448 -0.88980745720004994492 -0.79579738048950621199 1.4826541251233569252;-1.3956222311259551816 0.16603159034258768711 1.6882679076117945716 0.19076089725485081972 -1.3445329619831187795 2.1608821754647240532;1.6178781050573294298 1.6019484556576875089 -0.96188296479783852444 0.81295526220436642451 1.434054073180728528 -1.6721309330079594524;-2.3627217876109800621 -0.22806042020666913994 -0.54531806400130167223 0.81149985153184733822 2.8227921061438605577 -0.99258902574990059975;-1.4730649965750841623 -3.2854860964425300907 0.010695164247671778979 2.6760449897560905086 1.5144107492533203096 -0.18657848004081190041;-0.71724631007982797559 2.1076411643030796839 0.56733028982897382164 -0.74128732848714506964 1.7127106220936687553 -1.713450098671135402;2.2598748540096678106 0.66813146445374049787 1.6878495572768630328 0.99055611910822960464 0.80520154062262705441 -1.1938559847530756386;0.13206660396221542308 -1.7180900603534707827 -1.4562361071600671281 -0.516401868758387117 -1.2619280010372675438 1.953353351250469494;1.4891247259975017858 -0.58543808160463406409 0.91522475054319007981 -0.91194534781721958705 -1.8078748400835151777 -2.0680218919853636805;-0.73102533974949712725 2.2479668352807249398 0.76808273505236068779 0.71845099431172521065 -1.4971042218728882744 1.3431363013612276358;2.8004293674894515931 -0.084333326714114878464 1.050092960208065973 1.5037812002225350305 -0.13383975961415586764 -0.51483439579999912272;0.4606553599793595799 -1.2677544438327377208 -1.6078063095263681603 1.9839614000045868725 1.6432953939840178048 0.70068251120046465275;0.90761582204094959359 1.5343019423785972943 -0.87760462363120539386 0.97032822992101674942 1.6194501447291722585 1.9196128389731479391;-2.7094746806613247969 0.013468978123249941009 0.4771656948294596412 -1.5162731870022971847 -0.16097251958916491965 -1.2672871179600193603;0.036150545070169293194 -1.7664499147513930133 1.0041128460339747708 2.1290504505371230515 -1.4504324663790806316 0.86357750700877555783;1.2333792397835738885 0.34988873878375148507 1.2546639401151207238 -1.3636456483702725784 -0.84690916056967380232 -2.3573605710416920545;-0.51218558670715441661 1.4290632094019515286 -0.17500847018066434391 -1.2504603191698075992 2.3084005768143858184 -1.4752204657722323144;-0.24348176722316158815 -2.0514264487071911525 1.0449937923118188809 2.3089924613228154371 -0.48625329086991803118 0.44185813541014751227;-0.87963329085735930679 -1.2604738350071853503 -1.1658550300114629561 2.8878488082503657175 -0.71389940074719338003 -0.22806876944448176148;1.3261372261422013086 -0.66694115849916790761 2.6126924361592904766 0.14957034958419837545 -1.5456430034729891076 -1.0962160195433108267;0.30399033612832965234 -3.0213618216281843409 0.77137300212440029767 -0.81291631765472149862 1.13815132041863043 0.49851108282477984979;-1.5160600111157647163 -1.0256813809113989322 -1.2412557284760328269 -1.9040639670668575434 1.0883608036985166212 0.56026959525378827731;-1.467269361398672034 1.8671755970564321014 -0.43543609034620239795 -1.6200808655958560678 0.8981340413693982283 1.4407292331900551918;-2.0781065952162216526 -1.2158969176438547688 -1.5009934204907768862 0.21879790474098181896 1.6864152776068088713 -0.30221063166682260448;0.77256734619400047048 -1.9160059819683628035 1.1881537419442400605 0.85568174903056226643 -1.8837534760262450995 1.2329463768921364863;1.5438478815687830537 -0.80561496132073728837 1.910820673019603122 -0.22269746077337859713 -0.56544507980887059873 -1.8892669088183147164;-1.3303283740928042445 1.0183406761054407674 -1.9790378325789339531 -0.37906349853383619619 1.9934800200428242078 -0.78815258820782596594;-1.4036000235462025021 -1.6346714638248236451 0.55441599873145497313 -1.6879732681642247716 1.4723036519433103653 -1.6511921957540949268;1.0225091040554885602 -1.713600805811146488 1.6569364347209147859 -0.065426807910911155552 0.94217059350403953299 1.8329502588757911052;-1.717465600845480278 0.96629284620458377741 0.54255996170820797175 2.2640845559146605126 -1.1989256294181975804 0.76921364483922671784;-3.2006417914352276455 -0.3878804429491102268 -0.21338360016427712629 -0.47338775416037109922 1.2452682212093464376 1.4711590733176027612;-0.53161447177497855865 -0.8659938213950560959 2.6225165476968745892 -0.70329067022039160051 -1.3278206906518201791 1.069323662134876729;0.29289499573624450113 -0.40612320574110560845 2.456705687160861018 0.81950555803345337402 1.223671527264225789 1.9478774549112209957;-2.1875561907453913157 1.3900217400137875323 -1.778784915757287477 0.73207155261030643079 -1.4338297191296616173 1.7688863242449130997;0.97389925166637525411 -1.5587926434377725737 -1.5432561640704589578 -1.0340058463168988467 -1.1086621787309614007 1.7958790629280465545;0.5537246854546918895 0.44393156421632395947 -1.4178197075757614787 -1.8076626614991142539 -1.5307967997013178785 -1.8412692401398897957;-0.69127812439523872445 -0.39292616178434619512 -1.2728655757978164509 -1.6482055612295762881 -1.0932105929378368447 -1.7351935328498933053;-1.8772277204861196331 1.8904993466946689029 -0.92038107677746305857 -0.20880908468765402297 1.681144249672158475 0.74360703006270378879;1.9503904089910981678 1.0886393751670158103 -0.23180384173442841744 -0.40966684238539863294 -0.87954579733376925255 -1.9543009854003450254;-1.8812161485013043638 -1.3823951226869455322 -0.00040763592940390620811 -2.0968416475808351329 0.23163806065916808796 1.6184413166533955231;2.8634591801233977293 0.61467255637941653479 0.75687754342022728338 1.3839206373600885236 0.29065532304607377689 0.20012424695551994658;-3.2142707585761081113 1.4759771818187625847 -1.5042989870658958207 0.63232288651349632946 -0.28506409560828249727 1.1131690141790226978;-2.1588892251129347954 0.15752195855206688191 0.82518382881991736433 -2.1931707170507364069 1.266402465150046508 0.082838872188425061172;2.3788347584220108644 -1.0443855212592594306 0.16350368255389030603 0.40509300560146255243 2.1109966473089150085 -2.4583747086332952136;1.8703135244781192714 -1.0266350585224750525 0.16010481820331523561 -1.6989913144086732366 -1.6821792900940515381 -1.0850939735835187783;-1.5412101260394843738 0.92328203516636697668 0.12811038277192973722 1.9686920752202912155 -0.95450028183554247452 -1.5287482256119699908;-0.59444011142102204381 0.14551244471105673206 -0.55330078641481705848 1.0683861812070019059 -2.2390231916394216505 2.0798745097829418604;-0.46659283174223531443 0.78606256556256859369 -2.0753815302663478626 0.93790000220684899279 1.3842771355010932144 1.8280489058421149906;-0.87670323263166860528 -1.4031893158338570871 -0.75423267249323899808 1.0390788489485005552 -2.0249900297460881049 1.628672035121509154;-1.8425145994790745885 0.26201505468404029386 2.2829681929729930268 0.29435719425595963106 0.42051478461093821926 -1.5873719128433361192;0.024609654504458386426 -1.0249642548757826876 -1.0343953454560672611 1.7565131891285161725 -1.8599680410569709998 1.6759835132647593614;1.4740162521531152695 0.92420383939060612999 -1.4368361306097323649 -1.6417961540404382159 -1.0022961052866934395 1.5738071474406674088;1.8444193193464144542 -1.325122924481276554 1.2703187657325418769 -1.631312165097132949 -1.013240795339566569 0.93103049386340375193;0.20201973009061796605 1.8955132637094815884 1.3355536237714038528 -1.8758009022633543861 1.3671373414063534568 1.2354355237295595593;-1.1981451231864459483 1.2425660496221226925 -1.962772078653676644 -1.6067795652716241328 1.1158280347545785904 0.30316370126756952974;2.2570996739454503022 -1.3489104940158063162 -0.12075642449992510241 -0.98599836112184013892 -0.87738535899972180943 -1.6670216737517953298;-1.9433424596811177398 1.2382643704125877449 -0.21432384072701568534 -0.66653918999822003855 1.6375997344457127181 1.6132468409263982512;-1.6135557886160378782 -1.7555329391695460028 -0.83486102688179986142 -0.30673125964962483225 1.0064277582840441827 2.0136596714406089781;0.20161465356260657722 1.2720430627989893768 -0.023177529628408129886 -0.67724374394878106287 2.1382503953339351277 -2.0475704557370031367;-0.13940163570179187058 -1.9730542943652633614 1.1257715406723192153 1.8807335170217778231 -1.5322803443964347903 -0.1628148419617634346;-1.6768111459083057113 1.3237522508857744175 -0.41701823250310515734 -1.2447457638837748917 1.5834492104714099625 -1.2315660165703341544;-2.4335543791279330428 -0.81654793907553269161 -0.21299802258641253871 -0.62197526587088758365 1.007289754865203335 1.9254363006651287193;0.42982629490549861817 -1.8685720201713822419 -1.9701973949081783566 -0.60722493023770551801 -1.2729136682344723841 -1.2266615500915196701;-2.3253719286999494642 -1.6249664606584137694 -0.14785642876025259507 0.61430660885622023759 -0.99853624877189717246 -0.90134738816707726805;-1.2831883654046396526 -1.5676509803805014354 -1.9156449025189550284 0.73811928368314450033 0.18920078799000333847 -1.9484960402847610883;-0.10364988684655283835 1.0207268681477466021 1.0347580295566505271 0.24553981923420917233 -1.9650764539384080187 -2.2516740992135559907;-1.9174429588257015933 0.90364832538877193358 -0.099568948242805446758 -1.1528632535484177879 -1.8758251127816791826 0.93457613079077750395;-0.10115999561265166806 0.65063537093754364449 -1.4294778188645900219 -1.4808375394726713825 -1.6154191265329329585 2.0097575016248860891;-0.83637537210368440022 1.6558855553063367427 -0.85430978669384027846 0.9916017591983464774 -1.7565519320122928715 -1.6919058157212714111;-1.249142314288273159 -2.7764900838184307652 1.0291253515297609233 -0.23984227614017133989 -1.3391235498100728663 -0.46312456511312555252;-1.2626719264751238292 -2.1569200630298364096 -1.9692139236909456113 0.19609307948751009132 0.048169042188160586526 -1.1678859587370433726;-0.93489595371261846601 1.2803883198901799823 1.9249725772917212208 0.97115223776655801302 -0.32947362137935526372 -2.0384031295769413639;-1.2244054719562882383 1.5486858030526491348 1.8360098419178230156 -1.6407416129316310105 -0.550090740522790278 -1.0946531591733628108;-1.9325105648448530626 -0.29155154526321130914 -0.91620610109882705263 0.34253811899368430405 1.523565716998376951 -2.2445966670104113838;-0.96161735020371086335 1.4405784825334602139 1.0304496272110519328 -0.45566985751870447974 -1.9586228357314925397 -1.7806251365136527287;-2.4399421704572925584 0.29948871205753913038 0.41858835832297014434 1.8709986217374370288 -1.1232642350489008276 -0.0033177994763227804456;2.1896064820274108165 -1.9730795628680748433 1.3549594150041543994 0.58645160273189866906 0.61090331018833443633 1.2991317871724583632;0.7961864924287043177 1.7357507855950404796 -1.3158141168517234476 0.14706543737742222566 -2.2579902528844448817 1.0216937635886926827;1.7468561277841947454 0.86808337992556150464 -2.3096689787421222917 -0.36390307999600202127 1.1866184924227323183 -0.89778915431793782087;-2.267475449694473788 1.8145860412447623045 -1.4001912100064199951 0.58497691697466425165 -0.17047974037336860453 -1.2511121778404896698];

% Layer 2
b2 = 0.40657508096185340785;
LW2_1 = [0.38352855657471651707 -0.58845710409887008741 0.67368036716605905756 0.99849259005925738997 0.19956245017530258035 -0.021505768166775726669 0.69230114654324337309 -1.515564524179753958 -0.40694703489796962836 -0.10158568575597072547 -0.7717427835889751897 -0.81129794126856047409 0.22576796143824665042 -0.060109075517919247078 0.28272854558621374199 -0.40017615226850139498 0.87787985227373421804 0.24950814932546563907 0.65160655298212144526 -0.7307099944856464413 0.47627992882230446581 -0.17873947558601122054 0.12476330702326382527 0.033732772752632061986 1.0204673141810109982 -0.85008747101013470981 -0.27127936521547613147 -0.013874790073899610082 -0.26435242023430410852 0.13373299602249219542 0.25810236556188870249 0.38324872921639319134 -0.059137070808363487173 0.54846788913440713831 -0.50435579146038433951 -0.919489714061804575 -0.24834204489463140852 0.12834152288940692266 -1.0391421098812119173 0.36296592430331303669 0.32340903492184375212 0.089491878623281478911 0.9779582262641230983 0.64800144858863895081 -0.48947924223816852152 -0.4047259775814744942 -0.77882820913165262677 0.84865563263377497005 -0.32654627888445736383 -1.2100166849944946623 -0.43413025333559507324 -0.67733399452136777708 -0.40751427047155680539 0.22679162184604501062 0.94987723173576499303 -0.1346797480827421345 -0.50522160781372393856 2.0304233881913087423 0.7400608954999177147 -0.84419467073463283491 0.36526884658535047068 0.63409882145798679431 1.006180194266843797 0.072259657114399758471 -1.6524179196898665101 -0.73456942504020439344 0.37930970048018541885 -0.47194188863102837228 -0.18088375360285324778 -1.0233287193550484329 -0.21509662436355242443 -0.64810077251711384339 0.75329595865103871066 1.0416385158900469676 0.29560191783884881556 0.71385929135255765665 -0.56580407329944237826 0.051748710415618279224 -0.18000578676620138108 0.06373346855571898617 0.078889914193637111772 0.1158539705992689961 -0.8800089953855873004 -0.67561682784024623682 0.36870273578827150729 0.34928218309441849687 -0.042682149685615115853 -0.50499790921805542965 -1.3308340361197035229 1.0452163047321989531 -0.54449131701474251521 -0.85400532285824037881 0.70402613590700924284 -0.98060563234322750681 -0.039797823808799689949 -0.32472290894769084701 -0.69817808738235587196 -0.46152557289570067534 0.17718207325023846432 -0.56433986378713785204 -0.68296453730197703713 1.2697912564792097623 0.372878477872041314 -1.4979461949085823846 0.079648336177191164653 0.1160125395467390963 0.78510458942918848191 -0.7826013567701017859 0.35140324500618824732 1.7029581836058123034 0.29687130098484426632 -0.18831110927917399378 -0.13914973082632728363 -0.84484779225714412565 0.13741333210730036218 -1.1869806190514196054 0.49362912466933273059 -1.7508133591613899149 0.63798314840677627924 -1.2717788173726150003 -1.3826885634950265569 -0.39767013520577909613 -1.3177612941203857844 -2.2711520664425379756 -2.8861963299059278931 1.0338669293524922477 -0.16056400091806941055 0.5248076526666299868 -0.68705792293243772573 0.60811744234831921485 0.17775713513526397724 -0.040118136064852004397 -0.32353069699335240683 0.44575659346464108213 0.4101981310945070347 0.1898321366305289748 0.67319570925466476474 0.31867681664608094039 -1.0662273730757148016 0.61881422326105106624 -1.1499967642676920399 0.099151548469208816705 0.23506174751496100583 -0.019918533102613759922 -0.13129223603843614976 -0.30429304911267868183 -0.12297540781149075839 0.87295070165306565269 1.5259971994738339429 0.5962549614135903564 -1.794924828679902884 0.92321163183020227283 -0.20078162797834175901 -1.8475607021335933577 -0.3519521950980108449 -0.17475923232633083781 -0.61563191400688332955 -0.12425837559338896721 -0.22156134046436357088 1.4065973197579777487 0.52587450920717349057 -2.1339460243050933919 -0.59794164589312082114 2.0613551098529070416 0.85097719542593674991 0.19433577333619692085 0.13834035716461634546 0.85657586167653942955 -0.40329025693063608182 -0.069556536238434205077 -0.24564325175328416417 -0.53811475355520499431 -0.6014665913497644345 -0.21168467596255471919 -0.077027829988620746815 1.0350383925696118315 0.95975408337722001306 -0.0086585450256381757406 -0.44743746990369148708 0.22966813006543171372 0.49116165586478488514 -0.29894033147809861983 0.40472754961500673199 0.048803127145584226931 0.26683406054523478579 0.90698225421587885808 -0.91761411247293067639 -0.13271269346445843662 0.75904604327161373512 0.35090253661031328702 0.32392857293113008765 -0.28372574879404977022 -0.33144703107585998803 -0.89362558681548920347 -0.73501919282011607404 0.57070048500038816908 1.4612248369822420369 0.94694313308023569942 0.39800610397822255848 -0.98250396193527411715];

% Output 1
y1_step1.ymin = -1;
y1_step1.gain = 1.66666666666667;
y1_step1.xoffset = 1.3;

% ===== SIMULATION ========

% Dimensions
Q = size(x1,1); % samples

% Input 1
x1 = x1';
xp1 = mapminmax_apply(x1,x1_step1);

% Layer 1
a1 = tansig_apply(repmat(b1,1,Q) + IW1_1*xp1);

% Layer 2
a2 = repmat(b2,1,Q) + LW2_1*a1;

% Output 1
y1 = mapminmax_reverse(a2,y1_step1);
y1 = y1';
end

% ===== MODULE FUNCTIONS ========

% Map Minimum and Maximum Input Processing Function
function y = mapminmax_apply(x,settings)
y = bsxfun(@minus,x,settings.xoffset);
y = bsxfun(@times,y,settings.gain);
y = bsxfun(@plus,y,settings.ymin);
end

% Sigmoid Symmetric Transfer Function
function a = tansig_apply(n,~)
a = 2 ./ (1 + exp(-2*n)) - 1;
end

% Map Minimum and Maximum Output Reverse-Processing Function
function x = mapminmax_reverse(y,settings)
x = bsxfun(@minus,y,settings.ymin);
x = bsxfun(@rdivide,x,settings.gain);
x = bsxfun(@plus,x,settings.xoffset);
end
